svm_type c_svc
kernel_type rbf
gamma 0.00324675
nr_class 6
total_sv 664
rho -0.0566344 0.392362 0.475827 -0.371599 0.547537 0.578485 0.394762 -0.418838 0.650506 -0.374165 -0.6801 0.2061 -0.443511 0.514735 0.768979
label 1 2 3 4 5 6
probA -5.80336 -4.85775 -4.6977 -4.26532 -5.23151 -5.29474 -5.27011 -4.44494 -5.91572 -5.03391 -4.57696 -5.47628 -4.3451 -5.43144 -4.57613
probB -0.700398 -0.565036 0.429117 -0.0575027 -0.347917 -0.199589 0.33026 0.107103 0.255436 0.0361787 0.0305356 -0.444936 0.0705625 -0.071105 0.165812
nr_sv 142 165 101 93 32 131
SV
1 0.03288770910687933 0 0.538542153450987 0.7587412562955725 1:0 2:0 3:0 4:0 5:0 6:0 7:0 8:0 9:0 10:0 11:0.0298463 12:0.0149231 13:0.0447694 14:0.0895389 15:0.194001 16:0.194001 17:0.686465 18:1.40277 19:3.07416 20:5.6857 21:6.01401 22:7.58094 23:12.2071 24:10.864 25:9.90894 26:10.476 27:8.37186 28:5.07386 29:4.10386 30:5.70063 31:5.52155 32:2.3877 33:0.343232 34:0.0298463 35:0.0149231 36:0 37:0 38:0 39:0 40:0 41:0 42:0 43:0 44:0 45:0 46:0.253693 47:0.716311 48:0.790927 49:0.611849 50:0.835697 51:0.865543 52:1.20877 53:1.47739 54:1.38785 55:2.13401 56:1.67139 57:2.1937 58:2.49216 59:3.05924 60:2.62647 61:3.07416 62:3.01447 63:3.31293 64:3.1637 65:3.50693 66:3.46216 67:3.26816 68:3.5517 69:4.04416 70:4.59632 71:3.65616 72:4.02924 73:4.26801 74:4.58139 75:3.92478 76:3.11893 77:2.73093 78:2.92493 79:2.23847 80:2.46231 81:1.86539 82:1.50724 83:1.04462 84:0.761081 85:0.641695 86:0.731234 87:0.701388 88:0.85062 89:0.552157 90:0.104462 91:2.04447 92:2.41755 93:3.13385 94:3.61139 95:3.73078 96:3.89493 97:4.17847 98:3.5517 99:3.38755 100:2.76078 101:3.01447 102:3.22339 103:3.61139 104:2.64139 105:3.22339 106:3.43232 107:5.52155 108:5.64093 109:4.5217 110:2.04447 111:0.925235 112:0.626772 113:0.194001 114:0.492464 115:0.761081 116:0.477541 117:0.686465 118:1.38785 119:1.34308 120:1.34308 121:1.6117 122:2.13401 123:2.43247 124:2.53693 125:2.26831 126:2.17878 127:2.35785 128:2.34293 129:0.835697 130:1.0297 131:0.686465 132:0.731234 133:0.417848 134:0.373079 135:0.253693 136:0 137:0 138:0 139:0.0447694 140:0.492464 141:0.761081 142:1.11924 143:1.16401 144:1.56693 145:1.95493 146:1.9997 147:2.23847 148:2.53693 149:2.76078 150:2.80555 151:2.98462 152:2.93985 153:3.29801 154:3.62632 155:4.08893 156:5.08878 157:5.95432 158:4.80524 159:4.46201 160:3.89493 161:3.88001 162:3.92478 163:3.5517 164:2.73093 165:2.83539 166:2.46231 167:2.16385 168:2.05939 169:2.20862 170:2.29816 171:2.47724 172:2.07431 173:1.53708 174:1.4177 175:1.4177 176:1.17893 177:0.716311 178:0.268617 179:0.164155 180:0.0596926 181:0 182:0 183:0 184:0 185:0 186:0 187:0 188:0 189:0 190:0 191:0 192:0 193:0 194:0 195:0 196:0 197:0 198:0 199:0 200:0 201:0 202:0 203:0 204:0 205:0 206:0 207:0 208:0 209:0 210:0 211:0 212:0 213:0 214:0 215:0 216:0 217:0 218:0 219:0 220:0 221:0 222:0 223:0 224:0 225:0 226:0 227:0 228:0 229:0 230:0 231:0 232:0 233:0 234:0 235:0 236:0 237:0 238:0 239:0 240:0 241:0 242:0 243:0.0149209 244:0 245:0 246:0 247:0 248:0 249:0.0149209 250:0 251:0 252:0.0149209 253:0.0746046 254:0 255:0 256:0 257:0 258:0.0149209 259:0.0149209 260:0.0298418 261:0.0746046 262:0.0298418 263:0.0596837 264:0.0447628 265:0.0746046 266:0.0746046 267:0.238735 268:0.208893 269:0.16413 270:0.32826 271:0.313339 272:0.49239 273:0.686362 274:0.999701 275:1.23844 276:1.19367 277:1.77559 278:1.58162 279:1.61146 280:1.44733 281:2.04417 282:2.11877 283:2.70069 284:2.32767 285:2.73053 286:3.46166 287:3.07371 288:3.38705 289:3.07371 290:3.05879 291:3.32737 292:3.11848 293:3.38705 294:3.14832 295:3.1334 296:3.25276 297:3.55118 298:2.87974 299:3.44674 300:3.16324 301:3.07371 302:3.53626 303:3.26768 304:6.32644 305:2.76037 306:2.77529 307:2.01433 308:3.04387 
1 0 0 0.4570486435749867 0.428564600627411 1:0 2:0.0153139 3:0 4:0 5:0 6:0 7:0 8:0 9:0 10:0 11:0 12:0 13:0.107198 14:0.0918836 15:0.0918836 16:0.137825 17:0.398162 18:1.40888 19:3.09341 20:4.77795 21:6.4625 22:7.42729 23:11.8531 24:13.0169 25:10.873 26:10.8423 27:6.92192 28:3.70597 29:3.84379 30:5.39051 31:6.43187 32:2.92496 33:0.199081 34:0 35:0 36:0 37:0 38:0 39:0 40:0 41:0 42:0 43:0 44:0 45:0 46:0.122511 47:0.735069 48:0.658499 49:0.382848 50:0.535988 51:0.459418 52:0.704441 53:0.735069 54:1.25574 55:1.60796 56:2.02144 57:1.88362 58:2.61868 59:2.48086 60:3.24655 61:3.50689 62:3.06278 63:3.5222 64:3.47626 65:3.50689 66:3.84379 67:3.99693 68:4.57887 69:5.20674 70:3.93567 71:4.65544 72:3.98162 73:4.1807 74:3.85911 75:3.415 76:3.23124 77:2.54211 78:2.60337 79:2.35835 80:1.89893 81:1.74579 82:1.30168 83:1.02603 84:0.78101 85:0.949463 86:0.964777 87:0.796324 88:0.826952 89:0.474732 90:0.336907 91:1.60796 92:1.85299 93:2.80245 94:3.55283 95:3.15467 96:3.26186 97:3.75191 98:4.47167 99:3.35375 100:3.5222 101:3.27718 102:3.55283 103:3.16998 104:3.26186 105:2.95559 106:2.98622 107:5.71211 108:7.01381 109:4.44104 110:2.84839 111:1.34763 112:0.413476 113:0.0459418 114:0.413476 115:0.612557 116:0.903522 117:0.964777 118:1.13323 119:1.53139 120:1.4242 121:2.67994 122:2.35835 123:2.71057 124:3.64471 125:1.91424 126:1.74579 127:1.34763 128:1.53139 129:0.980091 130:0.581929 131:0.35222 132:0.245023 133:0.245023 134:0.153139 135:0.183767 136:0 137:0 138:0 139:0.0459418 140:0.826952 141:1.2098 142:1.27106 143:1.30168 144:1.56202 145:1.71516 146:1.99081 147:2.18989 148:2.26646 149:2.40429 150:2.80245 151:3.13935 152:3.04747 153:3.61408 154:3.88973 155:4.0735 156:4.64012 157:5.31394 158:4.41041 159:3.93567 160:4.30321 161:3.98162 162:3.78254 163:3.59877 164:3.29249 165:3.06278 166:2.90965 167:2.23584 168:2.34303 169:2.31241 170:2.32772 171:2.03676 172:1.66922 173:1.43951 174:1.34763 175:1.22511 176:1.05666 177:0.597243 178:0.474732 179:0.290965 180:0.0765697 181:0 182:0 183:0 184:0 185:0 186:0 187:0 188:0 189:0 190:0 191:0 192:0 193:0 194:0 195:0 196:0 197:0 198:0 199:0 200:0 201:0 202:0 203:0 204:0 205:0 206:0 207:0 208:0 209:0 210:0 211:0 212:0 213:0 214:0 215:0 216:0 217:0 218:0 219:0 220:0 221:0 222:0 223:0 224:0 225:0 226:0 227:0 228:0 229:0 230:0 231:0 232:0 233:0 234:0 235:0 236:0 237:0 238:0 239:0 240:0 241:0 242:0 243:0 244:0 245:0 246:0 247:0 248:0 249:0 250:0 251:0.0153116 252:0 253:0 254:0 255:0 256:0 257:0.0153116 258:0 259:0 260:0.0306232 261:0.0153116 262:0.0153116 263:0.0306232 264:0.0306232 265:0.0459348 266:0.137804 267:0.0918695 268:0.122493 269:0.137804 270:0.229674 271:0.367478 272:0.413413 273:0.444036 274:0.750268 275:0.979942 276:1.14837 277:1.39336 278:1.51585 279:1.63834 280:1.54647 281:1.60772 282:1.91395 283:2.06707 284:2.34267 285:2.87857 286:2.74077 287:3.20011 288:3.01638 289:3.91975 290:3.72071 291:3.46041 292:3.38385 293:3.41448 294:3.53697 295:3.8432 296:3.72071 297:3.91975 298:3.36854 299:3.39916 300:3.62884 301:4.16474 302:3.67477 303:3.82789 304:3.73602 305:3.09293 306:2.46516 307:2.40392 308:2.43454 
1 0.9098063883534215 0.6773409453790264 0.9756338380915676 0.2201382412513039 1:0 2:0 3:0 4:0 5:0 6:0 7:0 8:0 9:0 10:0 11:0 12:0.0159413 13:0 14:0 15:0.0159413 16:0.111589 17:0.589829 18:1.45066 19:3.57087 20:5.96204 21:6.91851 22:9.03872 23:13.6937 24:11.6531 25:10.4256 26:11.3981 27:6.50404 28:3.15639 29:3.33175 30:3.90563 31:4.65487 32:3.29986 33:0.286944 34:0.0318827 35:0 36:0 37:0 38:0 39:0 40:0 41:0 42:0 43:0 44:0 45:0 46:0.286944 47:0.430416 48:0.573888 49:0.414475 50:0.430416 51:0.510123 52:0.860832 53:1.25937 54:1.11589 55:1.54631 56:2.26367 57:2.19991 58:2.23179 59:3.3158 60:3.34769 61:3.36363 62:3.68246 63:3.88969 64:3.55492 65:3.93752 66:3.58681 67:3.7781 68:4.92587 69:4.68675 70:4.20852 71:4.09693 72:3.84187 73:4.11287 74:4.57516 75:3.65057 76:2.61438 77:2.32744 78:2.00861 79:2.26367 80:1.99267 81:1.41878 82:0.876773 83:1.13183 84:0.908656 85:0.84489 86:0.526064 87:0.653594 88:0.701418 89:0.71736 90:0.350709 91:1.09995 92:1.96079 93:2.42309 94:2.26367 95:2.94915 96:3.28392 97:3.15639 98:3.10857 99:3.2361 100:2.88539 101:2.1202 102:2.53468 103:2.63032 104:2.78974 105:2.99698 106:3.12451 107:4.73458 108:8.35323 109:4.47952 110:2.72597 111:1.49849 112:0.828949 113:0.191296 114:0.414475 115:1.13183 116:1.40284 117:1.54631 118:2.18397 119:2.56656 120:3.45928 121:5.19687 122:4.68675 123:3.37957 124:2.34338 125:1.76949 126:1.49849 127:0.860832 128:0.765184 129:0.573888 130:0.271003 131:0.207237 132:0.127531 133:0.0637653 134:0.095648 135:0.095648 136:0 137:0 138:0.223179 139:0.382592 140:0.95648 141:0.908656 142:1.25937 143:1.49849 144:1.56225 145:1.8492 146:2.02455 147:2.04049 148:2.40715 149:2.66221 150:2.80568 151:2.93321 152:3.10857 153:3.25204 154:3.63463 155:3.65057 156:3.84187 157:3.84187 158:4.27228 159:5.00558 160:4.43169 161:4.12881 162:4.20852 163:3.73028 164:3.45928 165:3.45928 166:2.99698 167:3.06074 168:3.0448 169:2.51873 170:2.02455 171:1.76949 172:1.59413 173:1.22748 174:1.08401 175:1.14778 176:1.05213 177:0.414475 178:0.334768 179:0.111589 180:0.095648 181:0 182:0 183:0 184:0 185:0 186:0 187:0 188:0 189:0 190:0 191:0 192:0 193:0 194:0 195:0 196:0 197:0 198:0 199:0 200:0 201:0 202:0 203:0 204:0 205:0 206:0 207:0 208:0 209:0 210:0 211:0 212:0 213:0 214:0 215:0 216:0 217:0 218:0 219:0 220:0 221:0 222:0 223:0 224:0 225:0 226:0 227:0 228:0 229:0 230:0 231:0 232:0 233:0 234:0 235:0 236:0 237:0 238:0 239:0 240:0 241:0 242:0 243:0 244:0 245:0 246:0 247:0 248:0.0159388 249:0 250:0 251:0 252:0 253:0 254:0 255:0 256:0 257:0 258:0 259:0 260:0 261:0.0478164 262:0 263:0 264:0 265:0.0478164 266:0.0159388 267:0.0159388 268:0.111572 269:0.111572 270:0.207204 271:0.239082 272:0.382531 273:0.462225 274:0.749124 275:0.701307 276:1.02008 277:1.29104 278:1.76921 279:1.33886 280:1.43449 281:1.53012 282:1.54606 283:1.73733 284:1.81702 285:2.11986 286:2.10392 287:2.82116 288:2.8371 289:2.69365 290:3.17182 291:3.63404 292:3.45871 293:3.15588 294:3.58622 295:3.96875 296:3.13994 297:3.69779 298:3.21963 299:3.37902 300:3.77749 301:4.20784 302:4.25565 303:3.88906 304:3.74561 305:6.77398 306:3.72967 307:2.9168 308:3.124 
1 1 0 0.6234613263137947 0.9570692101892893 1:0 2:0 3:0 4:0 5:0.0159541 6:0.0159541 7:0 8:0 9:0 10:0 11:0 12:0 13:0 14:0.0159541 15:0 16:0.0478622 17:0.239311 18:1.10083 19:3.84492 20:5.7594 21:7.27503 22:9.1257 23:12.4441 24:12.3325 25:10.0989 26:12.5718 27:6.47733 28:2.72814 29:3.84492 30:4.17996 31:4.38736 32:3.03127 33:0.366943 34:0.0638162 35:0.0319081 36:0 37:0 38:0 39:0 40:0.0159541 41:0 42:0 43:0 44:0 45:0 46:0.542438 47:0.542438 48:0.542438 49:0.733887 50:0.67007 51:0.686024 52:0.877473 53:0.877473 54:1.1806 55:1.5954 56:1.54754 57:1.93044 58:2.10593 59:3.09508 60:3.19081 61:3.22271 62:3.23867 63:3.71729 64:3.94065 65:4.7543 66:4.19591 67:3.82897 68:4.25973 69:4.81812 70:4.77025 71:4.53094 72:4.69048 73:4.22782 74:3.73324 75:3.1589 76:2.55265 77:2.79196 78:2.39311 79:1.96235 80:1.65922 81:1.08488 82:1.10083 83:0.94129 84:0.925336 85:0.733887 86:0.686024 87:0.638162 88:0.382897 89:0.414805 90:0.542438 91:1.45182 92:1.93044 93:1.89853 94:2.24952 95:2.63242 96:2.87173 97:2.9515 98:3.09508 99:3.23867 100:2.85577 101:2.60051 102:2.44097 103:2.87173 104:3.70133 105:3.25462 106:3.68538 107:3.43012 108:8.05678 109:5.63177 110:3.17485 111:1.5954 112:0.877473 113:0.191449 114:0.414805 115:0.877473 116:1.46777 117:1.5635 118:2.61646 119:2.76005 120:3.90874 121:4.3395 122:3.90874 123:3.82897 124:2.08998 125:1.64327 126:1.05297 127:0.717933 128:0.813657 129:0.574346 130:0.191449 131:0.271219 132:0.159541 133:0.0638162 134:0.0319081 135:0.0319081 136:0 137:0.0957243 138:0.271219 139:0.526484 140:0.717933 141:1.00511 142:1.05297 143:1.48373 144:1.51563 145:1.83471 146:1.94639 147:2.01021 148:2.42501 149:2.50478 150:2.79196 151:2.87173 152:2.93554 153:3.27058 154:3.41416 155:3.92469 156:3.65347 157:4.05232 158:4.06828 159:5.1372 160:4.49904 161:3.98851 162:4.08423 163:3.73324 164:3.5737 165:3.33439 166:3.22271 167:3.06317 168:2.79196 169:2.68028 170:2.10593 171:1.7709 172:1.5635 173:1.45182 174:1.22846 175:1.05297 176:1.10083 177:0.654116 178:0.335035 179:0.159541 180:0.111678 181:0 182:0 183:0 184:0 185:0 186:0 187:0 188:0 189:0 190:0 191:0 192:0 193:0 194:0 195:0 196:0 197:0 198:0 199:0 200:0 201:0 202:0 203:0 204:0 205:0 206:0 207:0 208:0 209:0 210:0 211:0 212:0 213:0 214:0 215:0 216:0 217:0 218:0 219:0 220:0 221:0 222:0 223:0 224:0 225:0 226:0 227:0 228:0 229:0 230:0 231:0 232:0 233:0 234:0 235:0 236:0 237:0 238:0 239:0 240:0 241:0 242:0.0159515 243:0 244:0 245:0 246:0 247:0.031903 248:0 249:0 250:0 251:0 252:0 253:0 254:0 255:0 256:0 257:0.0159515 258:0.0159515 259:0.031903 260:0.031903 261:0.031903 262:0.0478545 263:0.063806 264:0.0159515 265:0.0159515 266:0.0478545 267:0.0797575 268:0.063806 269:0.175467 270:0.20737 271:0.223321 272:0.430691 273:0.542351 274:0.5264 275:0.797576 276:0.797576 277:1.0528 278:1.21231 279:1.43564 280:1.51539 281:1.48349 282:1.40373 283:1.62705 284:1.93013 285:2.23321 286:2.02584 287:2.44058 288:3.17434 289:3.12649 290:3.2541 291:3.38171 292:4.3069 293:3.06268 294:3.8762 295:4.06762 296:3.286 297:3.33386 298:3.90811 299:3.41361 300:3.34981 301:3.8443 302:4.3707 303:3.65288 304:4.59403 305:5.93396 306:3.70074 307:3.04673 308:2.74365 
1 0.9740576571562817 0.4474577444106037 0.6847528357049465 0.400364407227344 1:0 2:0 3:0 4:0 5:0 6:0 7:0 8:0 9:0 10:0 11:0 12:0.0312744 13:0.0312744 14:0 15:0 16:0.172009 17:0.312744 18:1.40735 19:3.12744 20:5.05082 21:7.803 22:8.6787 23:13.4325 24:12.1658 25:11.4465 26:10.1955 27:6.67711 28:3.39327 29:3.47145 30:4.40969 31:5.75451 32:2.17357 33:0.265833 34:0 35:0 36:0.0156372 37:0 38:0 39:0 40:0 41:0 42:0 43:0 44:0 45:0 46:0.297107 47:0.625489 48:0.437842 49:0.484754 50:0.656763 51:0.6724 52:0.547303 53:0.95387 54:1.00078 55:1.48553 56:2.04847 57:2.48631 58:2.84597 59:2.79906 60:2.87724 61:3.17435 62:3.98748 63:4.00312 64:4.01875 65:4.23768 66:3.62782 67:4.23768 68:4.87881 69:3.73728 70:4.17513 71:4.25331 72:4.01875 73:4.12822 74:3.534 75:3.2369 76:2.65832 77:3.26817 78:2.59577 79:2.07975 80:1.73573 81:1.50117 82:1.17279 83:0.828773 84:0.875684 85:0.594214 86:0.719312 87:0.95387 88:0.813135 89:0.609851 90:0.140735 91:1.36044 92:1.57936 93:1.767 94:2.48631 95:4.14385 96:3.47145 97:3.14307 98:3.29944 99:3.14307 100:2.79906 101:2.62705 102:2.8616 103:2.92415 104:2.93979 105:2.93979 106:2.89288 107:4.67552 108:8.16266 109:4.76935 110:2.36121 111:1.54808 112:1.18843 113:0.172009 114:0.516028 115:0.594214 116:0.875684 117:1.17279 118:1.84519 119:3.17435 120:3.56528 121:3.72165 122:4.36278 123:3.34636 124:3.33072 125:1.59499 126:1.56372 127:0.656763 128:0.734949 129:0.688038 130:0.328382 131:0.172009 132:0.172009 133:0.172009 134:0.0625489 135:0.109461 136:0 137:0 138:0.0312744 139:0.531665 140:1.00078 141:1.04769 142:1.15715 143:1.25098 144:1.37607 145:1.62627 146:1.98592 147:2.34558 148:2.36121 149:2.47067 150:2.59577 151:2.89288 152:3.04925 153:3.20562 154:3.50273 155:3.64346 156:3.81547 157:4.19077 158:5.05082 159:4.48788 160:3.92493 161:3.95621 162:3.87802 163:3.58091 164:3.44018 165:3.29944 166:3.17435 167:2.6896 168:2.76778 169:2.79906 170:2.26739 171:1.92337 172:1.57936 173:1.72009 174:1.32916 175:1.3448 176:1.06333 177:0.703675 178:0.500391 179:0.328382 180:0.125098 181:0 182:0 183:0 184:0 185:0 186:0 187:0 188:0 189:0 190:0 191:0 192:0 193:0 194:0 195:0 196:0 197:0 198:0 199:0 200:0 201:0 202:0 203:0 204:0 205:0 206:0 207:0 208:0 209:0 210:0 211:0 212:0 213:0 214:0 215:0 216:0 217:0 218:0 219:0 220:0 221:0 222:0 223:0 224:0 225:0 226:0 227:0 228:0 229:0 230:0 231:0 232:0 233:0 234:0 235:0 236:0 237:0 238:0 239:0 240:0 241:0 242:0 243:0 244:0 245:0 246:0 247:0 248:0 249:0 250:0 251:0 252:0 253:0.0156348 254:0 255:0 256:0.0156348 257:0.0156348 258:0 259:0.0156348 260:0 261:0.0312695 262:0 263:0 264:0.0625391 265:0.0625391 266:0.0625391 267:0.0938086 268:0.125078 269:0.203252 270:0.234522 271:0.234522 272:0.32833 273:0.406504 274:0.422139 275:0.672295 276:0.65666 277:1.0788 278:1.57911 279:1.37586 280:1.57911 281:1.76673 282:1.96998 283:1.78236 284:1.98562 285:2.48593 286:2.68918 287:2.40776 288:3.17386 289:2.62664 290:2.67355 291:3.08005 292:3.26767 293:3.09569 294:2.90807 295:3.25203 296:3.54909 297:3.11132 298:3.40838 299:3.2833 300:3.56473 301:4.06504 302:3.90869 303:4.20575 304:3.90869 305:5.44088 306:4.95621 307:4.409 308:3.75235 
1 0 0.3750776767145472 0 0.5512347001071738 1:0 2:0 3:0.015321 4:0.015321 5:0 6:0 7:0.015321 8:0 9:0 10:0 11:0 12:0 13:0 14:0.0612839 15:0.0459629 16:0.137889 17:0.520913 18:1.62402 19:2.92631 20:4.7495 21:7.09358 22:8.13539 23:11.2608 24:10.7706 25:11.1536 26:10.1884 27:7.56852 28:4.79546 29:4.6729 30:6.32754 31:6.05177 32:1.68531 33:0.183852 34:0.015321 35:0 36:0 37:0 38:0 39:0 40:0 41:0 42:0 43:0 44:0 45:0 46:0.291099 47:0.612839 48:0.47495 49:0.62816 50:0.536234 51:0.78137 52:0.704765 53:0.9499 54:1.10311 55:1.36357 56:1.54742 57:2.1143 58:2.4054 59:3.07952 60:3.61576 61:3.87621 62:4.19795 63:4.09071 64:3.70768 65:3.60044 66:4.33584 67:3.73832 68:3.67704 69:3.84557 70:3.79961 71:3.79961 72:4.25924 73:3.84557 74:4.10603 75:3.89153 76:3.18677 77:3.61576 78:3.00292 79:2.20622 80:2.00705 81:1.71595 82:1.13375 83:0.612839 84:0.612839 85:0.674123 86:0.597518 87:0.520913 88:0.582197 89:0.536234 90:0.0306419 91:1.44017 92:2.09898 93:2.45136 94:3.49319 95:4.0141 96:3.78429 97:4.25924 98:3.11016 99:3.53915 100:3.69236 101:3.53915 102:2.91099 103:3.26337 104:3.27869 105:2.88035 106:2.71182 107:4.87207 108:6.35818 109:3.98346 110:2.98759 111:0.9499 112:0.566876 113:0.137889 114:0.367703 115:0.674123 116:0.873295 117:1.10311 118:1.44017 119:1.48614 120:1.74659 121:2.88035 122:2.32879 123:2.91099 124:2.91099 125:2.7731 126:2.46668 127:1.93044 128:1.36357 129:0.612839 130:0.459629 131:0.306419 132:0.413666 133:0.245136 134:0.183852 135:0.214494 136:0 137:0 138:0 139:0.137889 140:0.62816 141:0.934579 142:1.42485 143:1.62402 144:1.6087 145:1.85384 146:1.80788 147:2.17558 148:2.25219 149:2.78842 150:3.11016 151:3.12548 152:3.0642 153:3.32466 154:3.70768 155:4.3052 156:5.02527 157:4.90271 158:4.42776 159:4.16731 160:4.33584 161:4.10603 162:3.73832 163:3.52383 164:3.17145 165:2.84971 166:2.57393 167:2.1909 168:2.17558 169:2.03769 170:2.09898 171:2.25219 172:1.8998 173:1.88448 174:1.54742 175:1.22568 176:0.888616 177:0.428987 178:0.291099 179:0.245136 180:0.15321 181:0 182:0 183:0 184:0 185:0 186:0 187:0 188:0 189:0 190:0 191:0 192:0 193:0 194:0 195:0 196:0 197:0 198:0 199:0 200:0 201:0 202:0 203:0 204:0 205:0 206:0 207:0 208:0 209:0 210:0 211:0 212:0 213:0 214:0 215:0 216:0 217:0 218:0 219:0 220:0 221:0 222:0 223:0 224:0 225:0 226:0 227:0 228:0 229:0 230:0 231:0 232:0 233:0 234:0 235:0 236:0 237:0 238:0 239:0 240:0 241:0 242:0 243:0 244:0.0153186 245:0 246:0 247:0 248:0.0306373 249:0.0306373 250:0 251:0 252:0 253:0 254:0 255:0 256:0 257:0 258:0.0153186 259:0.0306373 260:0 261:0.0306373 262:0 263:0.0153186 264:0 265:0.0612745 266:0.0306373 267:0.0153186 268:0.214461 269:0.168505 270:0.214461 271:0.229779 272:0.505515 273:0.382966 274:0.44424 275:0.934437 276:0.827206 277:1.37868 278:1.83824 279:1.394 280:1.76164 281:1.51654 282:1.48591 283:2.35907 284:2.54289 285:2.11397 286:2.15993 287:2.43566 288:2.55821 289:2.77267 290:2.68076 291:2.54289 292:2.68076 293:3.44669 294:3.07904 295:3.40074 296:3.52329 297:3.47733 298:4.12071 299:3.69179 300:4.05944 301:3.70711 302:3.96753 303:4.62622 304:3.67647 305:4.0288 306:5.46873 307:3.75306 308:3.55392 
1 0 0 0 0 1:0 2:0 3:0 4:0 5:0 6:0 7:0 8:0 9:0 10:0 11:0 12:0 13:0 14:0.0284374 15:0.142187 16:0.199062 17:0.710934 18:1.56406 19:3.01435 20:4.13762 21:5.53107 22:7.72076 23:11.9578 24:10.6924 25:12.0289 26:10.081 27:9.42697 28:4.877 29:5.43153 30:6.12826 31:4.97653 32:1.27968 33:0.0710934 34:0.0142187 35:0 36:0 37:0 38:0 39:0 40:0 41:0 42:0 43:0 44:0 45:0 46:0.0710934 47:0.483435 48:0.881559 49:0.710934 50:0.86734 51:0.909996 52:0.881559 53:1.10906 54:1.53562 55:1.80577 56:2.06171 57:2.16124 58:2.88639 59:2.64467 60:3.32716 61:3.15654 62:3.56888 63:3.82481 64:3.92434 65:3.19919 66:3.86747 67:4.00965 68:3.7395 69:4.08075 70:4.16606 71:3.52622 72:3.75372 73:3.7395 74:3.45513 75:3.07123 76:3.1281 77:2.84373 78:3.14232 79:2.5167 80:2.03327 81:1.77734 82:1.33656 83:1.20859 84:1.09484 85:0.881559 86:0.668278 87:0.767809 88:0.582966 89:0.568747 90:0.042656 91:1.45031 92:2.3603 93:3.00013 94:2.9006 95:3.65419 96:3.62575 97:3.76794 98:3.78216 99:3.39825 100:2.75842 101:3.71106 102:3.78216 103:5.1045 104:3.38404 105:3.63997 106:3.8959 107:6.17091 108:5.34622 109:3.79637 110:2.20389 111:0.938433 112:0.398123 113:0.142187 114:0.341248 115:0.597185 116:0.526091 117:0.75359 118:1.49296 119:1.10906 120:1.08062 121:1.60671 122:1.22281 123:2.18968 124:2.40295 125:2.40295 126:1.87687 127:2.64467 128:2.24655 129:1.26546 130:1.09484 131:0.511873 132:0.440779 133:0.426561 134:0.298592 135:0.270155 136:0 137:0 138:0 139:0 140:0.199062 141:0.909996 142:1.0664 143:1.5214 144:1.77734 145:1.94796 146:1.86265 147:2.20389 148:2.34608 149:2.67311 150:2.68733 151:2.87217 152:3.18498 153:3.61153 154:3.99543 155:5.13294 156:5.37466 157:4.73481 158:4.39356 159:3.92434 160:3.62575 161:3.72528 162:3.8959 163:3.36982 164:2.9717 165:2.38874 166:2.27499 167:2.43139 168:2.45983 169:2.09015 170:2.24655 171:2.24655 172:2.26077 173:1.96218 174:1.64937 175:1.18015 176:0.966871 177:0.782028 178:0.511873 179:0.412342 180:0.142187 181:0 182:0 183:0 184:0 185:0 186:0 187:0 188:0 189:0 190:0 191:0 192:0 193:0 194:0 195:0 196:0 197:0 198:0 199:0 200:0 201:0 202:0 203:0 204:0 205:0 206:0 207:0 208:0 209:0 210:0 211:0 212:0 213:0 214:0 215:0 216:0 217:0 218:0 219:0 220:0 221:0 222:0 223:0 224:0 225:0 226:0 227:0 228:0 229:0 230:0 231:0 232:0 233:0 234:0 235:0 236:0 237:0 238:0 239:0 240:0 241:0 242:0 243:0 244:0 245:0 246:0 247:0 248:0 249:0 250:0.0142167 251:0 252:0 253:0 254:0 255:0 256:0 257:0 258:0 259:0 260:0 261:0 262:0 263:0 264:0 265:0.0284333 266:0.0142167 267:0.0568666 268:0.12795 269:0.12795 270:0.21325 271:0.284333 272:0.270117 273:0.526017 274:0.781916 275:0.81035 276:0.98095 277:0.952516 278:1.3648 279:1.5354 280:1.69178 281:1.89082 282:1.83395 283:2.11828 284:2.26045 285:2.20358 286:2.26045 287:2.58743 288:3.14188 289:2.78647 290:2.75803 291:3.34092 292:3.9238 293:3.42622 294:3.44043 295:3.11345 296:3.76742 297:3.88115 298:3.99488 299:3.22718 300:3.52573 301:3.82428 302:4.19392 303:4.36452 304:3.6679 305:2.88598 306:5.07537 307:2.75803 308:3.96645 
0.6100891694051608 0 0.1162761657690177 0 0 1:0 2:0 3:0 4:0 5:0 6:0 7:0 8:0 9:0 10:0 11:0 12:0 13:0 14:0.0424088 15:0.0424088 16:0.212044 17:0.452361 18:1.30054 19:2.34662 20:4.33985 21:5.40007 22:6.94093 23:10.0933 24:10.3761 25:12.0865 26:11.4363 27:11.1818 28:6.41788 29:5.04666 30:6.0362 31:4.97598 32:1.18745 33:0.0706814 34:0.0282725 35:0 36:0 37:0 38:0 39:0 40:0 41:0 42:0 43:0 44:0 45:0 46:0.0141363 47:0.22618 48:0.890585 49:0.664405 50:0.692677 51:0.664405 52:0.72095 53:1.06022 54:1.2864 55:1.66808 56:1.95081 57:2.45972 58:2.8414 59:2.91208 60:3.64717 61:3.23721 62:3.30789 63:3.57648 64:3.37858 65:3.25135 66:4.31157 67:4.19848 68:4.02885 69:3.85921 70:3.90162 71:4.00057 72:4.00057 73:3.84507 74:3.46339 75:3.57648 76:3.25135 77:3.46339 78:2.5304 79:2.16285 80:2.10631 81:1.73876 82:1.56913 83:1.2864 84:0.862312 85:0.777495 86:0.791631 87:0.692677 88:0.650269 89:0.424088 90:0.0706814 91:2.6859 92:2.20526 93:3.12412 94:3.1948 95:3.15239 96:3.44926 97:3.5058 98:3.16653 99:3.27962 100:3.56235 101:3.56235 102:5.47075 103:4.60844 104:4.24089 105:3.98644 106:4.22675 107:5.99379 108:5.49902 109:4.1278 110:1.78117 111:0.551315 112:0.268589 113:0.0848176 114:0.22618 115:0.282725 116:0.49477 117:0.777495 118:0.735086 119:1.06022 120:1.34295 121:1.00367 122:1.72463 123:2.57281 124:1.82358 125:1.88013 126:1.99322 127:1.54085 128:2.02149 129:1.38536 130:0.890585 131:0.678541 132:0.593724 133:0.438225 134:0.438225 135:0.381679 136:0 137:0 138:0 139:0 140:0.0282725 141:0.409952 142:1.17331 143:1.83772 144:1.55499 145:1.86599 146:2.03563 147:2.10631 148:2.41731 149:2.65762 150:2.6859 151:3.22308 152:3.25135 153:3.33617 154:3.51994 155:5.61211 156:5.85243 157:5.07493 158:4.45294 159:4.02885 160:3.76026 161:3.77439 162:3.44926 163:3.13826 164:2.64349 165:2.45972 166:2.57281 167:2.40317 168:2.3749 169:2.33249 170:2.2194 171:1.99322 172:2.17699 173:1.61154 174:1.54085 175:1.38536 176:1.00367 177:1.00367 178:0.636132 179:0.254453 180:0.155499 181:0 182:0 183:0 184:0 185:0 186:0 187:0 188:0 189:0 190:0 191:0 192:0 193:0 194:0 195:0 196:0 197:0 198:0 199:0 200:0 201:0 202:0 203:0 204:0 205:0 206:0 207:0 208:0 209:0 210:0 211:0 212:0 213:0 214:0 215:0 216:0 217:0 218:0 219:0 220:0 221:0 222:0 223:0 224:0 225:0 226:0 227:0 228:0 229:0 230:0 231:0 232:0 233:0 234:0 235:0 236:0 237:0 238:0 239:0 240:0 241:0 242:0 243:0 244:0 245:0 246:0 247:0 248:0 249:0 250:0 251:0.0141343 252:0 253:0 254:0 255:0 256:0 257:0 258:0 259:0.0141343 260:0.0141343 261:0 262:0.0282686 263:0 264:0 265:0 266:0.0565371 267:0.0282686 268:0.0706714 269:0.0989399 270:0.155477 271:0.409894 272:0.325088 273:0.438163 274:0.537103 275:0.621908 276:0.720848 277:0.763251 278:1.22968 279:1.62544 280:1.71025 281:1.83746 282:2.13428 283:2.13428 284:2.13428 285:2.03534 286:2.84098 287:2.72791 288:2.89752 289:2.92579 290:3.36395 291:3.6749 292:3.88691 293:3.37808 294:3.37808 295:3.34981 296:4.02825 297:3.68903 298:3.6325 299:3.61836 300:3.56183 301:3.42049 302:4.15546 303:3.5901 304:3.40635 305:3.78797 306:5.08834 307:2.86925 308:3.5901 
1 0 0 0 0 1:0 2:0 3:0 4:0 5:0 6:0 7:0 8:0 9:0 10:0 11:0 12:0.0280073 13:0.0280073 14:0.0420109 15:0.196051 16:0.0840218 17:0.350091 18:1.12029 19:2.15656 20:4.28513 21:6.95985 22:7.64603 23:10.7969 24:10.2787 25:12.5053 26:10.6148 27:9.60656 28:5.88156 29:5.23739 30:6.55374 31:4.83128 32:0.784204 33:0.0140036 34:0.0140036 35:0 36:0 37:0 38:0 39:0 40:0 41:0 42:0 43:0 44:0 45:0 46:0.0280073 47:0.364095 48:1.19031 49:0.92424 50:0.728189 51:0.812211 52:0.840218 53:1.19031 54:1.33035 55:2.08654 56:2.12855 57:2.32461 58:2.52066 59:2.95478 60:3.27686 61:4.11709 62:3.16483 63:3.22085 64:3.73899 65:3.52893 66:4.01906 67:4.07508 68:3.16483 69:3.73899 70:4.43917 71:3.69697 72:3.99105 73:3.65496 74:3.38889 75:2.96878 76:2.77273 77:2.81474 78:2.45064 79:2.74472 80:2.19857 81:1.77846 82:1.80647 83:1.13429 84:1.03627 85:0.840218 86:0.518135 87:0.868225 88:0.896233 89:0.532138 90:0.0140036 91:2.05853 92:2.15656 93:3.08081 94:3.89303 95:4.06107 96:3.50092 97:3.16483 98:3.50092 99:3.19284 100:3.26286 101:2.56267 102:3.23485 103:4.84528 104:4.10308 105:2.78673 106:3.65496 107:8.02413 108:5.97959 109:3.58494 110:1.75045 111:1.00826 112:0.322084 113:0 114:0.196051 115:0.602156 116:0.868225 117:0.784204 118:1.03627 119:0.854222 120:1.03627 121:1.59641 122:1.73645 123:1.89049 124:2.01652 125:2.40863 126:1.79247 127:2.00252 128:1.30234 129:1.73645 130:1.31634 131:1.07828 132:0.658171 133:0.686178 134:0.392102 135:0.294076 136:0 137:0 138:0 139:0 140:0.112029 141:0.490127 142:1.33035 143:1.34435 144:1.61042 145:1.62442 146:2.01652 147:2.21258 148:2.60468 149:2.43664 150:2.81474 151:3.23485 152:3.15083 153:3.47291 154:3.90703 155:5.48945 156:5.36342 157:4.84528 158:4.29914 159:3.99105 160:3.66897 161:3.83701 162:3.48692 163:3.19284 164:3.09481 165:2.64669 166:2.43664 167:2.42263 168:2.36662 169:2.21258 170:2.18457 171:2.35261 172:1.9325 173:1.83448 174:1.80647 175:1.42837 176:1.00826 177:0.812211 178:0.490127 179:0.280073 180:0.168044 181:0 182:0 183:0 184:0 185:0 186:0 187:0 188:0 189:0 190:0 191:0 192:0 193:0 194:0 195:0 196:0 197:0 198:0 199:0 200:0 201:0 202:0 203:0 204:0 205:0 206:0 207:0 208:0 209:0 210:0 211:0 212:0 213:0 214:0 215:0 216:0 217:0 218:0 219:0 220:0 221:0 222:0 223:0 224:0 225:0 226:0 227:0 228:0 229:0 230:0 231:0 232:0 233:0 234:0 235:0 236:0 237:0 238:0 239:0 240:0 241:0 242:0 243:0 244:0 245:0 246:0 247:0 248:0 249:0 250:0.0140017 251:0.0140017 252:0.0280034 253:0.0140017 254:0 255:0 256:0.0140017 257:0 258:0.0280034 259:0 260:0.0280034 261:0.0140017 262:0.0140017 263:0.0140017 264:0.042005 265:0.0140017 266:0.042005 267:0 268:0.112013 269:0.0980118 270:0.0840101 271:0.224027 272:0.25203 273:0.350042 274:0.602072 275:1.00812 276:1.14814 277:1.13414 278:1.59619 279:1.37217 280:1.59619 281:1.93223 282:2.24027 283:2.25427 284:2.43629 285:2.01624 286:2.92635 287:2.68832 288:2.74433 289:2.73033 290:2.75833 291:3.02436 292:3.27639 293:3.62643 294:3.76645 295:3.52842 296:3.57042 297:3.62643 298:3.90646 299:3.72444 300:4.01847 301:4.39652 302:4.03248 303:3.54242 304:3.29039 305:4.07448 306:3.97647 307:2.43629 308:3.59843 
0.699014138329889 0 0 0 0 1:0 2:0 3:0 4:0 5:0 6:0 7:0 8:0 9:0 10:0 11:0 12:0 13:0 14:0.0139801 15:0.111841 16:0.195722 17:0.475325 18:1.16035 19:2.40459 20:4.06822 21:5.28447 22:7.29758 23:10.7366 24:10.7506 25:11.6593 26:11.7851 27:10.6947 28:6.15123 29:5.45223 30:6.17919 31:4.40374 32:1.09045 33:0.0419404 34:0 35:0.0279603 36:0.0279603 37:0 38:0 39:0 40:0 41:0 42:0 43:0 44:0 45:0 46:0.0419404 47:0.671047 48:0.90871 49:0.629107 50:0.754928 51:0.615127 52:0.90871 53:1.43996 54:1.9712 55:1.94324 56:1.6916 57:2.51643 58:2.69817 59:2.99175 60:3.24339 61:3.28534 62:3.5929 63:4.18006 64:3.48106 65:4.26394 66:4.12414 67:3.7327 68:3.69076 69:3.63484 70:3.3832 71:3.57892 72:3.84454 73:3.7327 74:3.17349 75:3.07563 76:2.92185 77:2.79603 78:2.48847 79:2.30672 80:1.74752 81:2.05508 82:1.52384 83:1.59374 84:0.95065 85:0.726968 86:0.796869 87:0.89473 88:0.754928 89:0.475325 90:0.181742 91:2.05508 92:2.67021 93:3.4531 94:3.42514 95:2.94981 96:3.24339 97:3.7327 98:3.48106 99:3.99832 100:3.8026 101:3.71872 102:4.12414 103:4.45966 104:4.68334 105:3.3133 106:3.6628 107:7.04594 108:6.03939 109:2.75409 110:2.16692 111:0.699007 112:0.293583 113:0 114:0.251643 115:0.545226 116:0.782888 117:0.643087 118:0.838809 119:0.90871 120:1.23025 121:1.39801 122:1.00657 123:1.31413 124:2.48847 125:1.7615 126:1.50986 127:1.77548 128:1.9013 129:1.78946 130:1.34209 131:0.782888 132:0.685027 133:0.517265 134:0.377464 135:0.391444 136:0 137:0 138:0 139:0 140:0 141:0.279603 142:0.95065 143:1.6217 144:1.7615 145:1.92926 146:2.3207 147:2.0411 148:2.27876 149:2.60031 150:2.83797 151:3.10359 152:3.17349 153:3.39718 154:4.0123 155:5.49417 156:5.52213 157:5.07478 158:4.7812 159:3.8026 160:3.8026 161:3.53698 162:3.81658 163:2.83797 164:2.65623 165:2.69817 166:2.43255 167:2.27876 168:2.20886 169:2.09702 170:2.30672 171:2.20886 172:2.06906 173:1.78946 174:1.7615 175:1.27219 176:1.16035 177:1.09045 178:0.461345 179:0.391444 180:0.153782 181:0 182:0 183:0 184:0 185:0 186:0 187:0 188:0 189:0 190:0 191:0 192:0 193:0 194:0 195:0 196:0 197:0 198:0 199:0 200:0 201:0 202:0 203:0 204:0 205:0 206:0 207:0 208:0 209:0 210:0 211:0 212:0 213:0 214:0 215:0 216:0 217:0 218:0 219:0 220:0 221:0 222:0 223:0 224:0 225:0 226:0 227:0 228:0 229:0 230:0 231:0 232:0 233:0 234:0 235:0 236:0 237:0 238:0 239:0 240:0 241:0 242:0.0139782 243:0 244:0 245:0 246:0 247:0 248:0 249:0 250:0 251:0.0419346 252:0 253:0.0139782 254:0 255:0.0279564 256:0 257:0 258:0.0139782 259:0.0139782 260:0 261:0 262:0.0419346 263:0 264:0 265:0.0559128 266:0.0419346 267:0.069891 268:0.0978474 269:0.181717 270:0.377411 271:0.30752 272:0.601062 273:0.656975 274:0.573106 275:0.670953 276:0.908582 277:1.04836 278:1.17417 279:1.36986 280:1.87308 281:2.01286 282:1.92899 283:2.34834 284:2.16662 285:2.16662 286:2.97736 287:3.21499 288:2.6978 289:2.55801 290:3.67627 291:3.39671 292:3.38273 293:3.69025 294:3.67627 295:3.76014 296:3.62036 297:3.4666 298:3.88595 299:3.6623 300:3.49456 301:3.57843 302:3.50853 303:3.13112 304:3.29886 305:5.08806 306:2.72575 307:2.90747 308:3.80208 
1 0 0 0 0 1:0 2:0 3:0 4:0 5:0 6:0 7:0 8:0.0138696 9:0 10:0 11:0.0138696 12:0.0138696 13:0 14:0.0970874 15:0.0277393 16:0.221914 17:0.402219 18:1.20666 19:2.70457 20:4.72954 21:6.58808 22:7.69767 23:11.2343 24:10.0693 25:10.9986 26:11.7059 27:9.38973 28:6.31069 29:5.42302 30:6.18586 31:4.02218 32:0.901526 33:0.0277393 34:0.0277393 35:0 36:0 37:0 38:0 39:0 40:0 41:0 42:0 43:0 44:0 45:0 46:0.305132 47:0.471567 48:0.804438 49:0.998613 50:0.707351 51:0.73509 52:1.15118 53:1.17892 54:1.5534 55:1.65049 56:1.77531 57:2.44105 58:2.08045 59:3.17614 60:3.61996 61:3.30096 62:3.80027 63:3.77253 64:3.59222 65:4.02218 66:4.53536 67:4.21636 68:3.98057 69:3.70318 70:2.99583 71:3.67544 72:3.92509 73:3.35644 74:3.21775 75:2.99583 76:3.05131 77:2.94036 78:2.42718 79:2.30236 80:2.06658 81:1.99723 82:1.56727 83:1.20666 84:1.06796 85:0.776699 86:0.74896 87:0.693481 88:0.929265 89:0.429958 90:0.0693481 91:2.02497 92:2.20527 93:2.35784 94:3.0097 95:3.82801 96:3.03744 97:3.28709 98:2.92649 99:3.34257 100:3.3287 101:3.82801 102:4.90984 103:4.36892 104:4.49375 105:3.43966 106:3.16227 107:6.72678 108:5.49237 109:3.93896 110:1.78918 111:0.887656 112:0.346741 113:0.0693481 114:0.208044 115:0.527046 116:0.693481 117:0.416089 118:1.27601 119:1.38696 120:1.59501 121:1.74757 122:1.13731 123:1.83079 124:2.21914 125:2.60749 126:2.34397 127:1.81692 128:2.13592 129:1.81692 130:0.901526 131:0.887656 132:0.457698 133:0.429958 134:0.429958 135:0.346741 136:0 137:0 138:0 139:0 140:0.0554785 141:0.679612 142:1.33148 143:1.44244 144:1.65049 145:1.78918 146:1.98336 147:2.37171 148:2.31623 149:2.62136 150:2.87101 151:2.85714 152:3.06518 153:3.84187 154:4.1054 155:5.56172 156:5.39529 157:4.72954 158:4.24409 159:4.00831 160:4.17475 161:3.82801 162:3.49514 163:3.3287 164:2.80166 165:2.52427 166:2.30236 167:2.28849 168:2.56588 169:2.30236 170:2.12205 171:2.44105 172:1.99723 173:1.85853 174:1.49792 175:1.08183 176:1.05409 177:0.76283 178:0.429958 179:0.180305 180:0.0554785 181:0 182:0 183:0 184:0 185:0 186:0 187:0 188:0 189:0 190:0 191:0 192:0 193:0 194:0 195:0 196:0 197:0 198:0 199:0 200:0 201:0 202:0 203:0 204:0 205:0 206:0 207:0 208:0 209:0 210:0 211:0 212:0 213:0 214:0 215:0 216:0 217:0 218:0 219:0 220:0 221:0 222:0 223:0 224:0 225:0 226:0 227:0 228:0 229:0 230:0 231:0 232:0 233:0 234:0 235:0 236:0 237:0 238:0 239:0 240:0.0138677 241:0 242:0 243:0.0138677 244:0 245:0 246:0 247:0 248:0 249:0.0138677 250:0 251:0.0138677 252:0.0138677 253:0 254:0.0277354 255:0 256:0 257:0 258:0 259:0.0277354 260:0 261:0.0138677 262:0.0554708 263:0.0416031 264:0.0138677 265:0.0554708 266:0.0554708 267:0.0416031 268:0.0554708 269:0.235751 270:0.235751 271:0.30509 272:0.402163 273:0.416031 274:0.610179 275:0.748856 276:0.943003 277:1.10942 278:1.31743 279:1.20649 280:1.42837 281:1.87214 282:2.1911 283:2.32977 284:2.24657 285:2.32977 286:3.09249 287:3.09249 288:3.1757 289:2.85674 290:3.1757 291:3.00929 292:3.59173 293:3.60559 294:3.60559 295:3.66106 296:3.89681 297:3.81361 298:4.04936 299:3.07862 300:3.63333 301:3.79974 302:4.06323 303:3.02315 304:3.61946 305:5.11718 306:2.64873 307:2.95382 308:3.05089 
0.05352574878948776 0 0 0 0 1:0 2:0.0139431 3:0 4:0 5:0 6:0 7:0 8:0 9:0 10:0 11:0.0139431 12:0 13:0.0278862 14:0.0697156 15:0.0139431 16:0.18126 17:0.557724 18:0.989962 19:2.41216 20:3.94591 21:5.75853 22:7.87789 23:11.0847 24:10.9732 25:10.7083 26:10.7919 27:11.4612 28:6.99947 29:5.99556 30:5.35417 31:4.04351 32:0.66927 33:0.0697156 34:0 35:0 36:0 37:0 38:0 39:0 40:0 41:0 42:0 43:0 44:0 45:0 46:0.167317 47:0.683213 48:1.0039 49:0.711099 50:0.725042 51:0.766871 52:0.934189 53:1.18516 54:1.70106 55:1.65923 56:2.27273 57:2.39822 58:2.50976 59:2.8444 60:3.0396 61:3.40213 62:2.96989 63:3.5555 64:3.51367 65:4.41998 66:3.83436 67:4.11323 68:4.2666 69:3.44396 70:3.16509 71:3.98774 72:3.38818 73:3.56944 74:3.51367 75:3.13721 76:2.98383 77:3.13721 78:2.28667 79:2.53765 80:2.38427 81:1.75683 82:1.36642 83:1.36642 84:1.12939 85:1.12939 86:0.655326 87:0.655326 88:0.948132 89:0.697156 90:0.0976018 91:1.67317 92:2.30061 93:3.01172 94:3.43001 95:3.13721 96:3.43001 97:3.76465 98:3.70888 99:4.02957 100:3.6531 101:3.93197 102:3.90408 103:4.85222 104:4.15506 105:3.43001 106:4.43392 107:6.90187 108:5.32629 109:2.5237 110:1.57557 111:0.543781 112:0.376464 113:0.139431 114:0.264919 115:0.446179 116:0.599554 117:0.864473 118:0.89236 119:1.05968 120:1.4222 121:1.19911 122:1.53374 123:1.715 124:2.55159 125:1.8126 126:1.82655 127:1.78472 128:1.93809 129:2.00781 130:1.24094 131:0.794758 132:0.66927 133:0.418293 134:0.362521 135:0.376464 136:0 137:0 138:0 139:0 140:0.0557724 141:0.794758 142:1.0039 143:1.54768 144:1.53374 145:1.74289 146:1.92415 147:2.3285 148:2.45399 149:2.87228 150:2.8444 151:2.95594 152:3.06749 153:3.61127 154:4.22477 155:5.67487 156:5.28446 157:5.07531 158:4.15506 159:4.01563 160:4.22477 161:3.80648 162:3.59733 163:3.10932 164:2.62131 165:2.46793 166:2.57948 167:2.46793 168:2.59342 169:2.3285 170:2.31456 171:2.21695 172:2.03569 173:1.68712 174:1.3246 175:1.01785 176:0.864473 177:0.655326 178:0.501952 179:0.320691 180:0.111545 181:0 182:0 183:0 184:0 185:0 186:0 187:0 188:0 189:0 190:0 191:0 192:0 193:0 194:0 195:0 196:0 197:0 198:0 199:0 200:0 201:0 202:0 203:0 204:0 205:0 206:0 207:0 208:0 209:0 210:0 211:0 212:0 213:0 214:0 215:0 216:0 217:0 218:0 219:0 220:0 221:0 222:0 223:0 224:0 225:0 226:0 227:0 228:0 229:0 230:0 231:0 232:0 233:0 234:0 235:0 236:0 237:0 238:0 239:0 240:0 241:0 242:0.0278823 243:0 244:0 245:0 246:0 247:0 248:0 249:0.0139412 250:0 251:0 252:0.0139412 253:0 254:0 255:0 256:0 257:0 258:0 259:0.0139412 260:0.0139412 261:0.0139412 262:0.0139412 263:0 264:0.0418235 265:0.0278823 266:0.0418235 267:0.125471 268:0.111529 269:0.153353 270:0.181235 271:0.209118 272:0.501882 273:0.613411 274:0.529764 275:0.989823 276:0.906176 277:1.38018 278:1.71476 279:1.61718 280:1.64506 281:2.03541 282:2.23058 283:2.52335 284:2.25847 285:2.37 286:2.59305 287:2.9137 288:2.69064 289:3.12281 290:3.37375 291:3.66651 292:3.05311 293:3.35981 294:3.5271 295:3.5271 296:3.77804 297:3.2901 298:3.48528 299:3.2204 300:4.14051 301:3.47134 302:3.63863 303:3.17858 304:5.15823 305:3.02522 306:3.56893 307:3.03917 308:2.85793 
1 0 0.6064397828723914 0 0 1:0 2:0 3:0 4:0 5:0 6:0 7:0 8:0 9:0 10:0 11:0 12:0 13:0.0138447 14:0.0553787 15:0.152291 16:0.359961 17:0.719923 18:1.23217 19:2.54742 20:3.98727 21:6.85308 22:8.02986 23:11.6294 24:9.53891 25:9.70504 26:10.8126 27:11.1172 28:7.35148 29:4.69334 30:5.6763 31:4.01496 32:1.16295 33:0.332272 34:0.0276893 35:0 36:0 37:0 38:0 39:0 40:0 41:0 42:0 43:0 44:0 45:0 46:0.138447 47:0.443029 48:1.14911 49:1.09373 50:0.886059 51:0.83068 52:0.844525 53:1.07988 54:1.52291 55:1.63367 56:1.81365 57:2.04901 58:2.27052 59:2.29821 60:3.17043 61:2.75509 62:3.71037 63:3.39195 64:3.71037 65:4.83178 66:3.79344 67:3.95958 68:4.00111 69:4.26416 70:4.09802 71:4.31954 72:3.83498 73:3.17043 74:3.28119 75:3.26734 76:3.29503 77:3.01814 78:2.47819 79:2.49204 80:1.96594 81:1.73058 82:1.73058 83:1.1768 84:1.09373 85:0.678389 86:0.927593 87:0.636855 88:0.678389 89:0.387651 90:0.110757 91:2.17361 92:2.46435 93:3.22581 94:3.26734 95:3.54424 96:4.08418 97:3.58577 98:3.59962 99:3.57193 100:3.44732 101:3.00429 102:3.43348 103:6.31314 104:3.51655 105:3.57193 106:4.12571 107:5.84243 108:4.41645 109:2.76893 110:1.66136 111:0.733767 112:0.304583 113:0.20767 114:0.456874 115:0.789146 116:0.678389 117:0.719923 118:0.927593 119:1.09373 120:1.86903 121:1.6752 122:1.89672 123:2.63049 124:2.57511 125:2.17361 126:1.49522 127:1.56445 128:1.82749 129:1.48138 130:0.664544 131:0.678389 132:0.650699 133:0.553787 134:0.41534 135:0.332272 136:0 137:0 138:0 139:0 140:0 141:0.595321 142:1.13526 143:1.25986 144:1.50907 145:1.81365 146:2.15976 147:2.29821 148:2.6028 149:2.54742 150:2.7274 151:2.81047 152:3.15659 153:3.55808 154:4.08418 155:5.34403 156:5.12252 157:4.62412 158:4.47183 159:4.25031 160:3.91805 161:3.76575 162:3.9042 163:3.10121 164:2.69971 165:2.39513 166:2.22899 167:2.24283 168:2.29821 169:2.53357 170:2.46435 171:2.15976 172:2.25668 173:1.88287 174:1.63367 175:1.48138 176:1.23217 177:0.872214 178:0.484563 179:0.263049 180:0.124602 181:0 182:0 183:0 184:0 185:0 186:0 187:0 188:0 189:0 190:0 191:0 192:0 193:0 194:0 195:0 196:0 197:0 198:0 199:0 200:0 201:0 202:0 203:0 204:0 205:0 206:0 207:0 208:0 209:0 210:0 211:0 212:0 213:0 214:0 215:0 216:0 217:0 218:0 219:0 220:0 221:0 222:0 223:0 224:0 225:0 226:0 227:0 228:0 229:0 230:0 231:0 232:0 233:0 234:0 235:0 236:0 237:0 238:0 239:0 240:0 241:0 242:0 243:0 244:0 245:0 246:0 247:0 248:0.0138427 249:0 250:0 251:0 252:0 253:0 254:0 255:0 256:0 257:0 258:0.0138427 259:0.0692137 260:0 261:0.0415282 262:0.0830565 263:0 264:0.055371 265:0.0415282 266:0.179956 267:0.276855 268:0.15227 269:0.166113 270:0.318383 271:0.318383 272:0.484496 273:0.581396 274:0.733666 275:0.747509 276:1.12126 277:1.17663 278:1.09358 279:1.41196 280:1.75803 281:2.14562 282:2.22868 283:2.54707 284:2.81008 285:2.87929 286:2.72702 287:3.07309 288:2.79624 289:2.75471 290:2.87929 291:2.79624 292:2.71318 293:3.34995 294:3.44685 295:3.86213 296:3.46069 297:4.12515 298:3.08694 299:3.15615 300:3.16999 301:3.04541 302:3.58528 303:3.83445 304:5.0526 305:3.69602 306:4.02825 307:2.68549 308:3.22536 
0.145056630754703 0 0 0 0 1:0 2:0 3:0 4:0 5:0 6:0.0128025 7:0 8:0 9:0 10:0 11:0 12:0.0128025 13:0.0128025 14:0.0896172 15:0.217642 16:0.217642 17:0.473691 18:1.51069 19:2.27884 20:3.50786 21:5.04417 22:7.93756 23:12.3543 24:9.69145 25:11.1253 26:10.3828 27:9.72985 28:8.71849 29:4.96735 30:6.14519 31:4.42964 32:1.01139 33:0.128025 34:0.0128025 35:0 36:0 37:0 38:0 39:0 40:0 41:0 42:0 43:0 44:0 45:0 46:0.0896172 47:0.384074 48:0.716938 49:0.88337 50:0.716938 51:0.921778 52:0.844963 53:1.17783 54:1.49789 55:1.42107 56:1.83075 57:2.30444 58:2.56049 59:3.1494 60:3.12379 61:2.99577 62:3.46946 63:3.94315 64:3.94315 65:3.78952 66:3.99435 67:4.36563 68:4.59608 69:4.17359 70:3.96875 71:3.62309 72:3.40545 73:3.63589 74:3.23902 75:3.04698 76:2.99577 77:3.1622 78:2.13801 79:2.66291 80:1.83075 81:1.72833 82:1.39547 83:1.35706 84:1.0498 85:0.857765 86:0.704135 87:1.0242 88:0.93458 89:0.294456 90:0.0640123 91:1.94598 92:2.72692 93:3.52067 94:3.77671 95:3.55907 96:3.94315 97:3.6743 98:3.82792 99:3.6871 100:2.81654 101:3.00857 102:3.30303 103:3.91754 104:4.55767 105:3.95595 106:6.01717 107:6.90054 108:4.55767 109:2.57329 110:1.22904 111:0.857765 112:0.243247 113:0.0896172 114:0.550506 115:0.614518 116:0.499296 117:0.640123 118:0.83216 119:1.26744 120:1.47228 121:1.66432 122:1.65152 123:1.34426 124:1.85636 125:2.0996 126:1.38267 127:1.71553 128:1.80515 129:1.77954 130:1.5619 131:0.768148 132:0.601716 133:0.422481 134:0.396876 135:0.396876 136:0 137:0 138:0 139:0 140:0.0128025 141:0.614518 142:1.35706 143:1.38267 144:1.60031 145:1.92037 146:2.0996 147:2.12521 148:2.45807 149:2.6373 150:2.80373 151:2.97017 152:3.175 153:3.91754 154:5.95315 155:5.2106 156:5.09538 157:4.94175 158:4.34002 159:4.17359 160:4.39123 161:4.40404 162:3.43105 163:2.81654 164:2.58609 165:2.6245 166:2.67571 167:2.39406 168:2.38126 169:2.24043 170:2.15081 171:1.89477 172:1.58751 173:1.25464 174:0.908975 175:1.0626 176:0.88337 177:0.691333 178:0.435283 179:0.294456 180:0.115222 181:0 182:0 183:0 184:0 185:0 186:0 187:0 188:0 189:0 190:0 191:0 192:0 193:0 194:0 195:0 196:0 197:0 198:0 199:0 200:0 201:0 202:0 203:0 204:0 205:0 206:0 207:0 208:0 209:0 210:0 211:0 212:0 213:0 214:0 215:0 216:0 217:0 218:0 219:0 220:0 221:0 222:0 223:0 224:0 225:0 226:0 227:0 228:0 229:0 230:0 231:0 232:0 233:0 234:0 235:0 236:0 237:0 238:0 239:0 240:0 241:0.0128008 242:0 243:0.0128008 244:0 245:0 246:0.0128008 247:0 248:0.0128008 249:0.0128008 250:0.0128008 251:0 252:0.0128008 253:0 254:0 255:0 256:0.0256016 257:0 258:0.0128008 259:0.0128008 260:0 261:0.0128008 262:0 263:0.0128008 264:0.0128008 265:0.0640041 266:0.0640041 267:0.102407 268:0.0640041 269:0.140809 270:0.243216 271:0.396825 272:0.563236 273:0.32002 274:0.524833 275:0.678443 276:0.652842 277:0.985663 278:1.21608 279:1.6257 280:1.88172 281:2.54737 282:2.88019 283:2.80339 284:2.62417 285:3.16181 286:3.60984 287:3.22582 288:3.37943 289:2.72658 290:3.09781 291:3.0594 292:2.9954 293:3.28982 294:3.09781 295:3.81466 296:3.92987 297:3.77626 298:3.95547 299:3.50744 300:3.53304 301:3.35383 302:3.11061 303:2.72658 304:4.35229 305:3.82746 306:3.40503 307:2.59857 308:1.90732 
0 0 0.4898594039774958 0 0 1:0 2:0 3:0 4:0 5:0 6:0 7:0 8:0 9:0 10:0 11:0.012387 12:0 13:0 14:0.0247739 15:0.0743218 16:0.12387 17:0.334448 18:0.81754 19:1.57314 20:3.13391 21:4.89285 22:8.31162 23:13.0436 24:9.29021 25:10.851 26:12.2384 27:10.1325 28:9.11679 29:6.11914 30:6.14391 31:3.15868 32:0.582188 33:0.0247739 34:0.012387 35:0 36:0 37:0 38:0 39:0 40:0 41:0 42:0 43:0 44:0 45:0 46:0.0619348 47:0.198191 48:0.594575 49:0.706057 50:0.693671 51:0.569801 52:0.755605 53:0.966184 54:1.6103 55:1.98191 56:2.1801 57:2.46501 58:2.65081 59:2.60126 60:3.29494 61:3.54268 62:3.74087 63:3.44358 64:3.55506 65:3.91429 66:4.49647 67:4.53363 68:4.1868 69:4.69466 70:3.88951 71:3.34449 72:3.75326 73:3.17107 74:3.233 75:3.05958 76:2.89855 77:2.78707 78:2.34114 79:2.32875 80:1.90759 81:2.41546 82:1.47405 83:1.47405 84:1.05289 85:1.07767 86:0.767992 87:0.730831 88:0.681284 89:0.185805 90:0 91:2.24204 92:2.72513 93:2.32875 94:3.03481 95:3.14629 96:4.19919 97:4.08771 98:4.05055 99:4.11248 100:3.82758 101:4.22396 102:3.50552 103:4.28589 104:4.76898 105:4.19919 106:8.0391 107:5.36355 108:3.66655 109:2.32875 110:1.04051 111:0.644123 112:0.421157 113:0.173418 114:0.185805 115:0.606962 116:0.470705 117:0.904249 118:1.15199 119:1.06528 120:1.28824 121:1.01573 122:0.990958 123:1.6103 124:1.79611 125:1.73417 126:1.79611 127:1.41211 128:1.26347 129:1.20154 130:1.67224 131:1.00334 132:0.854701 133:0.644123 134:0.53264 135:0.396383 136:0 137:0 138:0 139:0 140:0.0247739 141:0.644123 142:1.18915 143:1.51121 144:1.73417 145:1.79611 146:1.98191 147:2.05623 148:2.70036 149:2.87378 150:2.87378 151:3.15868 152:3.54268 153:5.19013 154:5.6856 155:5.6856 156:5.06626 157:4.58318 158:4.5584 159:4.27351 160:3.95145 161:3.80281 162:2.9481 163:2.58888 164:2.849 165:2.79946 166:2.50217 167:2.41546 168:2.35352 169:2.01907 170:2.14294 171:1.63508 172:1.4245 173:1.30063 174:1.06528 175:0.829927 176:0.916636 177:0.582188 178:0.445931 179:0.222965 180:0.0867088 181:0 182:0 183:0 184:0 185:0 186:0 187:0 188:0 189:0 190:0 191:0 192:0 193:0 194:0 195:0 196:0 197:0 198:0 199:0 200:0 201:0 202:0 203:0 204:0 205:0 206:0 207:0 208:0 209:0 210:0 211:0 212:0 213:0 214:0 215:0 216:0 217:0 218:0 219:0 220:0 221:0 222:0 223:0 224:0 225:0 226:0 227:0 228:0 229:0 230:0 231:0 232:0 233:0 234:0 235:0 236:0 237:0 238:0 239:0 240:0 241:0 242:0 243:0 244:0 245:0 246:0 247:0 248:0 249:0 250:0.0123854 251:0 252:0 253:0.0123854 254:0.0123854 255:0 256:0 257:0.0123854 258:0 259:0 260:0 261:0 262:0.0247709 263:0.0123854 264:0.0123854 265:0.0123854 266:0.0123854 267:0.0247709 268:0.0495417 269:0.0990835 270:0.13624 271:0.148625 272:0.260094 273:0.222938 274:0.43349 275:0.371563 276:0.483032 277:0.829824 278:0.891751 279:1.11469 280:1.30047 281:1.4491 282:1.91975 283:2.26654 284:2.25415 285:3.02204 286:2.76195 287:2.84865 288:3.15828 289:3.36883 290:4.0748 291:3.76517 292:3.34406 293:3.75278 294:3.7404 295:3.64131 296:3.72801 297:3.69085 298:4.02526 299:4.71884 300:4.0748 301:3.36883 302:3.20782 303:2.82388 304:2.76195 305:2.25415 306:3.51746 307:5.66013 308:4.31012 
0 0 0.3166798694623627 0 0 1:0 2:0 3:0 4:0 5:0 6:0 7:0 8:0 9:0 10:0.0121743 11:0 12:0.036523 13:0 14:0.109569 15:0.328707 16:0.511322 17:0.754808 18:1.20526 19:2.08181 20:3.56709 21:5.60017 22:8.09587 23:12.4666 24:9.58118 25:11.2247 26:10.7986 27:9.00897 28:8.61938 29:6.03844 30:6.22105 31:3.46969 32:0.267835 33:0 34:0.0121743 35:0 36:0 37:0 38:0 39:0 40:0 41:0 42:0 43:0 44:0 45:0 46:0 47:0.206964 48:0.81568 49:1.09569 50:0.949597 51:0.949597 52:0.913074 53:1.43657 54:1.76528 55:1.63136 56:2.71488 57:2.17921 58:2.38617 59:2.8001 60:3.09229 61:3.18968 62:2.83662 63:3.61578 64:3.11663 65:3.7497 66:4.1758 67:3.89579 68:4.54102 69:4.74798 70:3.96884 71:3.8471 72:4.1271 73:3.33577 74:3.39664 75:3.42099 76:3.06794 77:2.38617 78:2.39835 79:1.76528 80:1.9479 81:1.59484 82:1.33918 83:1.24178 84:0.98612 85:0.876551 86:1.04699 87:1.04699 88:0.81568 89:0.462625 90:0.133918 91:2.7514 92:2.41052 93:2.38617 94:2.62966 95:3.01924 96:3.57926 97:3.93232 98:3.8471 99:3.73753 100:4.06623 101:4.29754 102:3.99319 103:3.33577 104:4.72364 105:3.89579 106:8.41241 107:5.89235 108:3.3236 109:1.49744 110:1.20526 111:0.961772 112:0.401753 113:0.073046 114:0.340881 115:0.474799 116:0.584368 117:0.913074 118:0.961772 119:0.791331 120:1.29048 121:1.46092 122:1.33918 123:1.78963 124:1.71658 125:1.88702 126:1.54614 127:1.70441 128:2.11834 129:1.93572 130:1.29048 131:1.50962 132:0.803506 133:0.377404 134:0.36523 135:0.438276 136:0 137:0 138:0 139:0 140:0.0121743 141:0.511322 142:1.22961 143:1.2783 144:2.09399 145:1.52179 146:1.81398 147:1.93572 148:2.53226 149:2.64183 150:2.61749 151:2.87315 152:3.2749 153:5.588 154:5.70974 155:5.64887 156:5.19843 157:4.82103 158:4.04189 159:3.98101 160:4.1271 161:3.50621 162:3.38447 163:2.88532 164:3.05576 165:2.99489 166:2.65401 167:2.56879 168:2.2766 169:2.24008 170:2.11834 171:1.75311 172:1.29048 173:0.949597 174:0.973946 175:1.10786 176:0.925249 177:0.791331 178:0.633065 179:0.292184 180:0.158266 181:0 182:0 183:0 184:0 185:0 186:0 187:0 188:0 189:0 190:0 191:0 192:0 193:0 194:0 195:0 196:0 197:0 198:0 199:0 200:0 201:0 202:0 203:0 204:0 205:0 206:0 207:0 208:0 209:0 210:0 211:0 212:0 213:0 214:0 215:0 216:0 217:0 218:0 219:0 220:0 221:0 222:0 223:0 224:0 225:0 226:0 227:0 228:0 229:0 230:0 231:0 232:0 233:0 234:0 235:0 236:0 237:0 238:0 239:0 240:0 241:0 242:0 243:0 244:0 245:0 246:0 247:0 248:0 249:0.0121729 250:0.0121729 251:0 252:0 253:0.0121729 254:0 255:0 256:0.0121729 257:0.0121729 258:0 259:0 260:0.0243457 261:0.0486914 262:0.0243457 263:0.0121729 264:0.0365186 265:0 266:0.0486914 267:0.0608643 268:0.0365186 269:0.121729 270:0.146074 271:0.182593 272:0.243457 273:0.353013 274:0.389531 275:0.632989 276:0.779063 277:1.01035 278:1.18077 279:1.75289 280:1.76506 281:2.31284 282:2.38588 283:2.81193 284:3.15278 285:2.93366 286:3.3232 287:2.90932 288:3.46927 289:3.3232 290:3.88315 291:2.97018 292:3.33537 293:3.1406 294:3.04322 295:3.23799 296:3.43275 297:3.29885 298:3.93184 299:3.73708 300:3.77359 301:3.2745 302:3.12843 303:2.89714 304:3.18929 305:4.13878 306:4.94218 307:2.83628 308:2.27632 
0 0 1 0 0 1:0 2:0 3:0 4:0 5:0 6:0 7:0 8:0 9:0 10:0 11:0 12:0 13:0.0222742 14:0.0556855 15:0.211605 16:0.245016 17:0.512307 18:1.00234 19:1.73739 20:2.81768 21:4.97826 22:7.43954 23:12.4957 24:11.3264 25:10.9143 26:11.0813 27:12.2396 28:9.58898 29:7.0052 30:4.13185 31:1.75966 32:0.356387 33:0.0779597 34:0 35:0.0111371 36:0 37:0 38:0 39:0 40:0 41:0 42:0 43:0 44:0 45:0 46:0 47:0.189331 48:0.400936 49:0.579129 50:0.690501 51:1.09144 52:1.24736 53:1.41441 54:1.75966 55:1.84876 56:1.84876 57:2.53926 58:2.53926 59:2.58381 60:2.68404 61:2.99588 62:3.31885 63:3.22975 64:3.29657 65:3.7866 66:4.04275 67:4.35459 68:4.34345 69:3.89797 70:4.1764 71:4.23208 72:3.93138 73:3.75319 74:3.38567 75:3.20748 76:2.89564 77:2.51698 78:2.29424 79:2.23856 80:1.88217 81:1.71512 82:1.60375 83:1.33645 84:1.21395 85:1.24736 86:1.29191 87:1.21395 88:0.84642 89:0.245016 90:0.100234 91:2.12719 92:2.29424 93:2.28311 94:2.99588 95:2.81768 96:3.67523 97:4.4771 98:3.9648 99:3.95366 100:3.89797 101:3.77547 102:2.87337 103:3.74205 104:5.78013 105:9.28829 106:6.89383 107:4.83348 108:3.32999 109:2.23856 110:1.45896 111:0.501169 112:0.178194 113:0.0668226 114:0.167056 115:0.155919 116:0.289565 117:0.400936 118:0.445484 119:0.701638 120:0.657089 121:1.22508 122:1.20281 123:1.14712 124:1.89331 125:1.82649 126:2.21628 127:1.20281 128:1.51465 129:1.4701 130:1.59261 131:1.32532 132:1.02461 133:0.991203 134:0.590266 135:0.523444 136:0 137:0 138:0 139:0 140:0 141:0.367524 142:0.946655 143:1.34759 144:1.93786 145:1.67057 146:1.99354 147:2.21628 148:2.57267 149:2.65063 150:3.12952 151:3.77547 152:6.09196 153:5.35692 154:5.30124 155:5.15646 156:5.08963 157:5.12304 158:4.56619 159:4.29891 160:3.80888 161:3.37453 162:2.99588 163:2.9736 164:2.57267 165:2.72859 166:2.45016 167:2.39448 168:1.99354 169:1.88217 170:1.71512 171:1.21395 172:1.15826 173:0.84642 174:0.790735 175:0.935517 176:1.10257 177:0.657089 178:0.434347 179:0.300702 180:0.0890968 181:0 182:0 183:0 184:0 185:0 186:0 187:0 188:0 189:0 190:0 191:0 192:0 193:0 194:0 195:0 196:0 197:0 198:0 199:0 200:0 201:0 202:0 203:0 204:0 205:0 206:0 207:0 208:0 209:0 210:0 211:0 212:0 213:0 214:0 215:0 216:0 217:0 218:0 219:0 220:0 221:0 222:0 223:0 224:0 225:0 226:0 227:0 228:0 229:0 230:0 231:0 232:0 233:0 234:0 235:0 236:0 237:0 238:0 239:0 240:0 241:0 242:0 243:0 244:0 245:0.0111359 246:0 247:0 248:0 249:0 250:0 251:0.0111359 252:0 253:0 254:0 255:0.0111359 256:0 257:0 258:0 259:0 260:0.0111359 261:0 262:0.0111359 263:0.0222717 264:0.0556793 265:0.0222717 266:0.077951 267:0.0445434 268:0.18931 269:0.178174 270:0.233853 271:0.289532 272:0.334076 273:0.356347 274:0.501113 275:0.478842 276:0.935413 277:1.01336 278:1.04677 279:1.41425 280:1.44766 281:1.63697 282:2.02672 283:2.27171 284:2.3608 285:2.2049 286:2.50556 287:3.12917 288:3.1069 289:3.65255 290:3.71937 291:3.96435 292:3.59687 293:3.67482 294:3.87527 295:3.93095 296:4.15367 297:4.25389 298:4.07571 299:4.15367 300:4.10912 301:3.61914 302:3.36302 303:3.42984 304:3.34075 305:3.47438 306:3.91981 307:1.97104 308:1.78173 
0 0 1 0 0 1:0 2:0.0112537 3:0 4:0 5:0 6:0 7:0 8:0 9:0 10:0 11:0 12:0.0225073 13:0.0112537 14:0.12379 15:0.225073 16:0.438893 17:0.483907 18:0.967814 19:1.63178 20:3.06099 21:4.1751 22:7.1011 23:11.7263 24:10.2183 25:11.9963 26:11.6362 27:12.4127 28:9.82445 29:7.61878 30:4.50146 31:1.46298 32:0.24758 33:0.0675219 34:0.0450146 35:0 36:0 37:0 38:0 39:0 40:0 41:0 42:0 43:0 44:0 45:0 46:0.0787756 47:0.225073 48:0.979068 49:0.821517 50:1.05784 51:0.967814 52:1.03534 53:1.39546 54:1.37295 55:2.04817 56:1.85686 57:2.02566 58:2.39703 59:2.70088 60:2.70088 61:3.30857 62:3.38735 63:3.7137 64:3.87125 65:4.43394 66:4.06257 67:4.45645 68:4.87284 69:4.31015 70:4.18636 71:3.78122 72:3.21854 73:3.34233 74:2.94846 75:2.9372 76:2.75715 77:2.48706 78:2.2845 79:2.1382 80:2.03692 81:1.91313 82:1.39546 83:1.48549 84:1.2379 85:0.956561 86:1.2379 87:0.832771 88:0.495161 89:0.24758 90:0.0112537 91:2.97097 92:2.82467 93:3.07225 94:3.00473 95:3.24105 96:3.5449 97:3.5449 98:4.14134 99:4.01755 100:4.07382 101:4.14134 102:3.7137 103:3.58991 104:5.23296 105:9.89197 106:8.03517 107:4.64776 108:2.36327 109:1.89062 110:1.2379 111:0.483907 112:0.405132 113:0.0225073 114:0.236327 115:0.225073 116:0.146298 117:0.281341 118:0.731488 119:0.652712 120:0.58519 121:0.934053 122:1.08035 123:0.979068 124:1.35044 125:1.41796 126:1.31668 127:1.50799 128:1.18163 129:1.02408 130:1.09161 131:1.48549 132:1.24916 133:1.05784 134:0.832771 135:0.551429 136:0 137:0 138:0 139:0 140:0 141:0.281341 142:0.844024 143:1.30543 144:1.76683 145:1.86811 146:2.21697 147:2.65586 148:2.39703 149:2.97097 150:2.77965 151:3.42111 152:6.09951 153:5.86318 154:6.26832 155:5.48055 156:5.13168 157:4.45645 158:4.37767 159:4.27639 160:3.55615 161:3.26356 162:2.94846 163:2.79091 164:2.73464 165:2.4533 166:2.43079 167:2.67837 168:2.08193 169:1.93563 170:1.66554 171:1.13662 172:0.79901 173:1.00158 174:0.832771 175:0.832771 176:0.990322 177:0.753995 178:0.438893 179:0.157551 180:0.0675219 181:0 182:0 183:0 184:0 185:0 186:0 187:0 188:0 189:0 190:0 191:0 192:0 193:0 194:0 195:0 196:0 197:0 198:0 199:0 200:0 201:0 202:0 203:0 204:0 205:0 206:0 207:0 208:0 209:0 210:0 211:0 212:0 213:0 214:0 215:0 216:0 217:0 218:0 219:0 220:0 221:0 222:0 223:0 224:0 225:0 226:0 227:0 228:0 229:0 230:0 231:0 232:0 233:0 234:0 235:0 236:0 237:0 238:0 239:0 240:0 241:0 242:0 243:0 244:0 245:0 246:0 247:0.0112524 248:0 249:0 250:0.0112524 251:0.0112524 252:0.0112524 253:0 254:0 255:0 256:0.0112524 257:0 258:0.0112524 259:0.0225048 260:0 261:0.0337572 262:0.0337572 263:0.0225048 264:0.0112524 265:0.056262 266:0 267:0.0900191 268:0.0675143 269:0.180038 270:0.191291 271:0.247553 272:0.28131 273:0.427591 274:0.495105 275:0.596377 276:0.686396 277:0.686396 278:0.945202 279:1.17025 280:1.35029 281:1.66536 282:1.93541 283:2.26173 284:2.5768 285:2.62181 286:2.80185 287:2.89187 288:3.21819 289:3.16192 290:3.9721 291:3.93834 292:4.17464 293:3.36447 294:3.58952 295:3.34196 296:3.84832 297:4.09587 298:4.39969 299:4.48971 300:4.16339 301:3.78081 302:3.29695 303:3.06065 304:3.39823 305:3.31946 306:3.24069 307:3.42073 308:2.30674 
1 0.09570254235288071 0 0 0 1:0 2:0 3:0 4:0 5:0 6:0 7:0 8:0 9:0 10:0 11:0 12:0 13:0.0335196 14:0.0893855 15:0.201117 16:0.268156 17:0.692738 18:1.13966 19:1.98882 20:3.65364 21:5.94415 22:8.74864 23:13.5308 24:10.6704 25:9.40786 26:9.57546 27:8.58104 28:9.27378 29:8.11176 30:5.32962 31:2.32402 32:0.413408 33:0 34:0 35:0.0111732 36:0 37:0 38:0.0223464 39:0 40:0 41:0 42:0 43:0 44:0 45:0 46:0 47:0.27933 48:0.882682 49:0.960894 50:1.13966 51:1.27374 52:1.2514 53:1.85474 54:1.77653 55:2.01117 56:2.35754 57:2.2905 58:2.23463 59:2.46927 60:2.32402 61:2.40223 62:3.22905 63:3.29609 64:3.27375 65:3.94414 66:4.08939 67:3.73185 68:4.22347 69:3.95531 70:3.72068 71:3.59777 72:3.20671 73:3.30727 74:3.0838 75:2.77095 76:2.88268 77:2.77095 78:2.56983 79:2.24581 80:2.43575 81:2.39106 82:2.18994 83:1.75419 84:1.17318 85:1.18436 86:1.38547 87:0.927375 88:0.882682 89:0.234637 90:0.0446927 91:2.60335 92:3.06145 93:3.66481 94:4.07822 95:3.83241 96:3.60894 97:3.36313 98:3.96649 99:3.36313 100:3.35196 101:3.29609 102:3.10615 103:3.5419 104:4.62571 105:8.07824 106:6.63689 107:3.11732 108:3.00559 109:1.92178 110:1.15084 111:0.972067 112:0.391062 113:0.0223464 114:0.268156 115:0.49162 116:0.513967 117:0.446927 118:0.77095 119:0.837989 120:1.21788 121:1.59776 122:1.29609 123:1.57542 124:2 125:2.06703 126:1.77653 127:1.55307 128:1.2514 129:1.31843 130:1.2514 131:1.48603 132:1.06145 133:1.01676 134:0.960894 135:0.49162 136:0 137:0 138:0 139:0 140:0 141:0.167598 142:1.31843 143:1.45251 144:1.59776 145:1.87709 146:2 147:2.37989 148:2.86034 149:3.00559 150:2.73743 151:3.12849 152:4.48046 153:6.51399 154:6.35756 155:5.4637 156:5.06147 157:4.58102 158:4.03353 159:4.22347 160:4.02235 161:3.34079 162:2.96089 163:2.56983 164:2.51396 165:2.72626 166:2.83799 167:2.43575 168:2.34637 169:1.68715 170:1.38547 171:1.36313 172:0.938548 173:0.927375 174:0.905028 175:0.77095 176:0.949721 177:0.972067 178:0.648045 179:0.301676 180:0.167598 181:0 182:0 183:0 184:0 185:0 186:0 187:0 188:0 189:0 190:0 191:0 192:0 193:0 194:0 195:0 196:0 197:0 198:0 199:0 200:0 201:0 202:0 203:0 204:0 205:0 206:0 207:0 208:0 209:0 210:0 211:0 212:0 213:0 214:0 215:0 216:0 217:0 218:0 219:0 220:0 221:0 222:0 223:0 224:0 225:0 226:0 227:0 228:0 229:0 230:0 231:0 232:0 233:0 234:0 235:0 236:0 237:0 238:0 239:0 240:0 241:0 242:0 243:0.0111719 244:0.0111719 245:0 246:0 247:0 248:0.0111719 249:0 250:0 251:0 252:0 253:0 254:0.0111719 255:0 256:0.0223439 257:0 258:0.0111719 259:0.0111719 260:0.0223439 261:0.0111719 262:0.0335158 263:0.0111719 264:0.0111719 265:0.0558597 266:0.0335158 267:0.0335158 268:0.134063 269:0.111719 270:0.0782036 271:0.223439 272:0.178751 273:0.391018 274:0.424534 275:0.458049 276:0.670316 277:0.670316 278:0.882583 279:0.949615 280:1.1954 281:1.5529 282:1.60876 283:2.39079 284:2.52485 285:2.97172 286:2.87118 287:2.86001 288:3.03876 289:2.94938 290:3.34039 291:3.78727 292:4.25648 293:4.6475 294:3.61969 295:3.54149 296:3.94367 297:3.64203 298:3.60852 299:3.69789 300:4.27883 301:3.89899 302:3.23985 303:2.90469 304:2.69243 305:3.28454 306:3.80961 307:3.54149 308:4.82625 
0.7377119777517224 0 0.5428605021097354 0 0 1:0 2:0 3:0 4:0 5:0 6:0 7:0 8:0 9:0 10:0 11:0 12:0 13:0.0110963 14:0.0110963 15:0.144252 16:0.144252 17:0.366179 18:1.17621 19:2.01953 20:3.14025 21:5.19308 22:8.48872 23:12.9604 24:11.4181 25:9.12119 26:10.4416 27:10.142 28:9.19886 29:8.83269 30:4.97115 31:2.01953 32:0.199734 33:0.0110963 34:0 35:0 36:0 37:0 38:0 39:0 40:0 41:0 42:0 43:0 44:0 45:0 46:0 47:0.0776742 48:0.42166 49:0.965379 50:1.10963 51:1.1984 52:1.45362 53:1.77541 54:2.1194 55:1.95295 56:2.17488 57:2.34132 58:2.14159 59:2.1083 60:2.7186 61:2.419 62:3.21793 63:3.17354 64:2.98491 65:3.31779 66:3.31779 67:3.8837 68:4.60497 69:3.8837 70:3.85041 71:3.75055 72:3.70616 73:3.47314 74:3.86151 75:3.21793 76:3.14025 77:3.27341 78:2.62983 79:2.28584 80:2.08611 81:2.3968 82:1.77541 83:1.498 84:1.35375 85:1.18731 86:1.25388 87:0.909898 88:0.665779 89:0.266312 90:0.0665779 91:2.68531 92:2.92942 93:3.92809 94:3.41766 95:3.25122 96:3.66178 97:4.24988 98:4.31646 99:3.60629 100:3.8837 101:3.33999 102:2.75188 103:3.37327 104:5.09321 105:8.32228 106:6.04751 107:3.72835 108:3.04039 109:1.70883 110:1.54239 111:0.898801 112:0.710164 113:0.0998668 114:0.21083 115:0.277408 116:0.643586 117:0.277408 118:0.377275 119:0.876609 120:1.14292 121:1.28717 122:1.07634 123:1.25388 124:1.53129 125:1.89747 126:1.55349 127:1.43143 128:1.33156 129:1.5091 130:1.57568 131:1.54239 132:1.32046 133:0.84332 134:0.84332 135:0.621394 136:0 137:0 138:0 139:0 140:0 141:0.0776742 142:0.810031 143:1.8198 144:1.73103 145:2.06392 146:2.36352 147:2.46338 148:2.59654 149:2.90723 150:2.79627 151:3.35108 152:6.25834 153:6.0808 154:5.79229 155:5.40392 156:4.79361 157:4.53839 158:4.2055 159:4.42743 160:4.31646 161:3.11806 162:2.62983 163:2.66311 164:2.59654 165:2.54106 166:2.49667 167:2.24146 168:2.24146 169:1.96405 170:1.60897 171:1.00976 172:0.865512 173:0.887705 174:0.765646 175:0.987572 176:1.04305 177:0.776742 178:0.432756 179:0.233023 180:0.110963 181:0 182:0 183:0 184:0 185:0 186:0 187:0 188:0 189:0 190:0 191:0 192:0 193:0 194:0 195:0 196:0 197:0 198:0 199:0 200:0 201:0 202:0 203:0 204:0 205:0 206:0 207:0 208:0 209:0 210:0 211:0 212:0 213:0 214:0 215:0 216:0 217:0 218:0 219:0 220:0 221:0 222:0 223:0 224:0 225:0 226:0 227:0 228:0 229:0 230:0 231:0 232:0 233:0 234:0 235:0 236:0 237:0 238:0 239:0 240:0 241:0 242:0 243:0 244:0 245:0 246:0 247:0 248:0 249:0 250:0 251:0 252:0 253:0 254:0 255:0 256:0 257:0.0110951 258:0 259:0 260:0.0221902 261:0.0221902 262:0.0110951 263:0.0110951 264:0.0110951 265:0.0110951 266:0.0110951 267:0.0332853 268:0.0554754 269:0.0443803 270:0.122046 271:0.155331 272:0.110951 273:0.221902 274:0.432708 275:0.366138 276:0.554754 277:0.58804 278:1.02075 279:0.931988 280:1.22046 281:1.3536 282:1.5755 283:2.27449 284:2.2523 285:2.75158 286:2.81815 287:2.76267 288:3.18428 289:3.19538 290:3.57261 291:4.51569 292:4.64883 293:4.69321 294:3.90546 295:3.49494 296:3.65027 297:3.83889 298:3.35071 299:3.25085 300:3.94984 301:3.65027 302:3.1399 303:3.46166 304:2.64063 305:3.20647 306:4.36036 307:3.89437 308:4.63773 
0 0 0.9376733101994137 0 0 1:0 2:0 3:0 4:0 5:0 6:0 7:0 8:0 9:0 10:0 11:0 12:0 13:0 14:0.0305904 15:0.163149 16:0.305904 17:0.550627 18:1.20322 19:1.99857 20:3.29355 21:4.44578 22:6.60748 23:9.97238 24:10.6148 25:11.614 26:12.1749 27:12.9702 28:10.3802 29:8.086 30:4.30302 31:1.13185 32:0.163149 33:0 34:0 35:0 36:0 37:0 38:0 39:0 40:0 41:0 42:0 43:0 44:0 45:0 46:0 47:0.28551 48:0.540431 49:0.632202 50:1.2746 51:1.37657 52:1.74365 53:1.64169 54:1.76405 55:1.93739 56:1.917 57:2.2127 58:2.57978 59:3.01824 60:2.74293 61:2.62057 62:2.80411 63:3.22218 64:3.1406 65:3.50768 66:3.92575 67:3.82378 68:3.70142 69:3.84417 70:4.04811 71:3.56886 72:3.1406 73:3.19159 74:3.13041 75:3.07942 76:2.97746 77:2.88569 78:2.79392 79:2.37585 80:2.33506 81:2.50841 82:1.95779 83:1.69267 84:1.84562 85:1.30519 86:1.51932 87:0.836138 88:0.530234 89:0.0305904 90:0 91:2.50841 92:3.03864 93:3.21198 94:3.48729 95:3.54847 96:3.85437 97:4.15007 98:4.15007 99:3.93594 100:3.92575 101:3.1406 102:4.40499 103:5.36348 104:9.26881 105:7.43341 106:6.88279 107:4.0685 108:2.539 109:1.22362 110:0.968696 111:0.305904 112:0.142755 113:0.0713776 114:0.0815744 115:0.244723 116:0.152952 117:0.152952 118:0.305904 119:0.469053 120:0.418069 121:0.652595 122:1.41736 123:0.856532 124:0.723973 125:0.968696 126:2.61037 127:1.47854 128:0.591415 129:1.07066 130:0.978893 131:1.05027 132:1.02988 133:1.44795 134:0.856532 135:0.825941 136:0 137:0 138:0 139:0 140:0 141:0.152952 142:0.815744 143:1.25421 144:1.69267 145:2.02916 146:2.2127 147:2.34526 148:2.46762 149:2.26369 150:4.39479 151:5.9243 152:5.87331 153:5.37368 154:5.58781 155:5.3125 156:5.21053 157:4.96581 158:4.3744 159:4.19086 160:3.55867 161:2.99785 162:2.91628 163:2.80411 164:2.77352 165:2.67156 166:2.47782 167:1.96798 168:1.86602 169:1.2746 170:0.978893 171:1.02988 172:0.887122 173:1.04007 174:1.02988 175:0.856532 176:0.723973 177:0.693383 178:0.591415 179:0.305904 180:0.122362 181:0 182:0 183:0 184:0 185:0 186:0 187:0 188:0 189:0 190:0 191:0 192:0 193:0 194:0 195:0 196:0 197:0 198:0 199:0 200:0 201:0 202:0 203:0 204:0 205:0 206:0 207:0 208:0 209:0 210:0 211:0 212:0 213:0 214:0 215:0 216:0 217:0 218:0 219:0 220:0 221:0 222:0 223:0 224:0 225:0 226:0 227:0 228:0 229:0 230:0 231:0 232:0 233:0 234:0 235:0 236:0 237:0 238:0 239:0 240:0 241:0 242:0 243:0 244:0 245:0 246:0 247:0 248:0 249:0 250:0 251:0 252:0 253:0 254:0 255:0 256:0 257:0 258:0 259:0 260:0.0203915 261:0.0101958 262:0.0305873 263:0.0101958 264:0.0203915 265:0.0509788 266:0.0509788 267:0.0713703 268:0.122349 269:0.234502 270:0.26509 271:0.316069 272:0.285481 273:0.40783 274:0.448613 275:0.499592 276:0.723898 277:1.03997 278:0.836051 279:0.927813 280:1.51917 281:1.63132 282:1.9066 283:1.77406 284:2.42659 285:2.69167 286:3.22185 287:2.865 288:3.3442 289:3.13009 290:3.33401 291:3.74184 292:4.59828 293:4.85317 294:4.51671 295:4.65945 296:4.59828 297:4.50652 298:3.93555 299:3.79281 300:3.94575 301:4.45554 302:3.5787 303:3.18107 304:3.47675 305:2.12071 306:1.93719 307:2.66109 308:1.22349 
0 0 0.3826791132363646 0 0 1:0 2:0 3:0 4:0 5:0 6:0 7:0 8:0 9:0.0102344 10:0 11:0 12:0 13:0 14:0 15:0.0614062 16:0.511718 17:0.859686 18:1.18719 19:1.79101 20:2.70187 21:4.3803 22:6.80585 23:10.388 24:11.0123 25:11.0532 26:11.4831 27:11.913 28:11.2068 29:9.05746 30:4.55429 31:0.96203 32:0.0409375 33:0.0204687 34:0 35:0.0102344 36:0 37:0 38:0 39:0 40:0 41:0 42:0 43:0 44:0 45:0 46:0.0204687 47:0.153516 48:0.542421 49:0.470781 50:1.02344 51:1.23836 52:1.65797 53:1.78078 54:2.34367 55:2.06734 56:2.33343 57:2.56882 58:2.62 59:2.37437 60:2.86562 61:2.54836 62:2.76328 63:2.41531 64:2.99867 65:2.74281 66:2.73257 67:3.18289 68:3.02937 69:3.61273 70:3.41828 71:3.74577 72:3.65367 73:3.87882 74:3.27499 75:3.15218 76:3.27499 77:3.35687 78:3.01914 79:3.23406 80:2.74281 81:2.75304 82:2.24132 83:1.81148 84:1.58633 85:1.92406 86:1.45328 87:0.808514 88:0.542421 89:0.0307031 90:0.0204687 91:3.80718 92:3.53085 93:3.32617 94:3.39781 95:3.82765 96:4.29843 97:5.08648 98:4.6771 99:4.53382 100:4.19609 101:3.90952 102:3.76624 103:5.78241 104:7.21522 105:6.65233 106:6.25319 107:3.06007 108:2.72234 109:1.95476 110:0.716405 111:0.542421 112:0.143281 113:0.0102344 114:0.0409375 115:0.153516 116:0.347968 117:0.194453 118:0.378671 119:0.3275 120:0.429843 121:0.593593 122:0.79828 123:0.859686 124:0.96203 125:0.900624 126:1.24859 127:0.921092 128:1.14625 129:1.12578 130:1.03367 131:0.849452 132:0.869921 133:1.36117 134:1.13601 135:0.921092 136:0 137:0 138:0 139:0 140:0 141:0.0102344 142:0.747108 143:1.49422 144:1.83195 145:1.62726 146:2.04687 147:2.54836 148:3.09078 149:3.3364 150:5.6596 151:7.07194 152:6.02804 153:6.12015 154:5.43444 155:5.20929 156:4.9739 157:4.77944 158:4.3496 159:3.76624 160:3.17265 161:2.98843 162:2.9782 163:2.98843 164:2.45625 165:2.26179 166:1.95476 167:1.62726 168:1.33047 169:1.13601 170:0.736874 171:0.900624 172:0.593593 173:0.665233 174:0.552656 175:0.818749 176:0.890389 177:0.808514 178:0.511718 179:0.358203 180:0.153516 181:0 182:0 183:0 184:0 185:0 186:0 187:0 188:0 189:0 190:0 191:0 192:0 193:0 194:0 195:0 196:0 197:0 198:0 199:0 200:0 201:0 202:0 203:0 204:0 205:0 206:0 207:0 208:0 209:0 210:0 211:0 212:0 213:0 214:0 215:0 216:0 217:0 218:0 219:0 220:0 221:0 222:0 223:0 224:0 225:0 226:0 227:0 228:0 229:0 230:0 231:0 232:0 233:0 234:0 235:0 236:0 237:0 238:0 239:0 240:0 241:0 242:0 243:0 244:0 245:0 246:0.0102333 247:0.0102333 248:0 249:0 250:0 251:0.0102333 252:0 253:0.0102333 254:0 255:0.0307 256:0.0102333 257:0 258:0.0102333 259:0 260:0 261:0.0102333 262:0.0102333 263:0.0409333 264:0 265:0.0716332 266:0.0511666 267:0.0613999 268:0.112567 269:0.133033 270:0.173966 271:0.1842 272:0.1228 273:0.2763 274:0.337699 275:0.388866 276:0.552599 277:0.532132 278:0.675399 279:1.06427 280:0.992633 281:1.48383 282:1.535 283:2.15923 284:2.07736 285:2.6709 286:3.1621 287:2.9165 288:3.2849 289:3.2849 290:3.1314 291:4.12404 292:4.87108 293:5.31112 294:4.90178 295:4.59478 296:4.40034 297:4.43104 298:3.98077 299:3.377 300:4.02171 301:3.77611 302:3.80681 303:3.12117 304:3.42817 305:2.6709 306:2.78347 307:1.842 308:2.96767 
0.3739586294961778 0.0884862283395213 1 0 0.2019617444158497 1:0 2:0 3:0 4:0 5:0 6:0 7:0 8:0 9:0 10:0 11:0 12:0 13:0.0105854 14:0.0423415 15:0.201122 16:0.338732 17:0.889171 18:0.984439 19:1.8101 20:2.85805 21:4.85867 22:8.00251 23:11.5276 24:11.2947 25:10.2149 26:10.8183 27:12.0251 28:11.7287 29:8.3836 30:3.42966 31:0.529268 32:0.0211707 33:0.0317561 34:0 35:0 36:0 37:0.0105854 38:0 39:0 40:0 41:0 42:0 43:0 44:0 45:0 46:0.105854 47:0.105854 48:0.169366 49:0.666878 50:1.0162 51:1.42903 52:1.47137 53:1.8101 54:1.83127 55:1.74659 56:2.33937 57:2.06415 58:2.26527 59:2.23352 60:2.33937 61:2.19118 62:2.48756 63:2.64634 64:2.93215 65:2.78395 66:2.97449 67:3.70487 68:3.62019 69:3.49317 70:3.78956 71:4.13887 72:3.55668 73:3.20737 74:3.60961 75:3.28146 76:3.55668 77:3.38732 78:3.15444 79:3.31322 80:3.09093 81:2.76278 82:2.59342 83:2.09591 84:2.18059 85:1.70425 86:0.963269 87:0.656293 88:0.455171 89:0.0740976 90:0.0105854 91:3.40849 92:3.33439 93:3.14385 94:2.86864 95:3.15444 96:3.33439 97:4.29765 98:4.81633 99:4.59404 100:4.1177 101:3.96951 102:7.4309 103:6.53115 104:5.81135 105:5.65257 106:5.62082 107:2.80512 108:1.67249 109:0.920927 110:0.423415 111:0.423415 112:0.434 113:0.0105854 114:0.127024 115:0.211707 116:0.27522 117:0.497512 118:0.603366 119:1.04795 120:0.772732 121:0.783317 122:0.920927 123:1.05854 124:1.41844 125:1.302 126:1.28083 127:1.31259 128:1.23849 129:1.06912 130:1.302 131:1.05854 132:0.793903 133:1.42903 134:1.5243 135:1.20673 136:0 137:0 138:0 139:0 140:0 141:0 142:0.518683 143:2.04298 144:2.17001 145:1.9583 146:2.26527 147:2.51932 148:3.04859 149:6.72169 150:6.77461 151:6.05481 152:5.50438 153:6.38296 154:6.17125 155:5.33501 156:5.1974 157:4.42468 158:3.7578 159:3.28146 160:2.7522 161:2.74161 162:2.57225 163:2.54049 164:2.08532 165:1.65132 166:1.48195 167:1.07971 168:0.963269 169:0.719805 170:1.00561 171:0.995025 172:0.846829 173:0.688049 174:0.656293 175:0.666878 176:0.942098 177:0.719805 178:0.518683 179:0.179951 180:0.0740976 181:0 182:0 183:0 184:0 185:0 186:0 187:0 188:0 189:0 190:0 191:0 192:0 193:0 194:0 195:0 196:0 197:0 198:0 199:0 200:0 201:0 202:0 203:0 204:0 205:0 206:0 207:0 208:0 209:0 210:0 211:0 212:0 213:0 214:0 215:0 216:0 217:0 218:0 219:0 220:0 221:0 222:0 223:0 224:0 225:0 226:0 227:0 228:0 229:0 230:0 231:0 232:0 233:0 234:0 235:0 236:0 237:0 238:0 239:0 240:0 241:0 242:0 243:0 244:0.0105843 245:0 246:0 247:0.0105843 248:0 249:0.0105843 250:0.0529213 251:0.0105843 252:0.0105843 253:0 254:0.0105843 255:0 256:0 257:0 258:0.0105843 259:0 260:0.042337 261:0 262:0.0211685 263:0.0211685 264:0.0211685 265:0.084674 266:0.0211685 267:0.0529213 268:0.0635055 269:0.105843 270:0.084674 271:0.116427 272:0.179932 273:0.211685 274:0.275191 275:0.381033 276:0.412786 277:0.582134 278:0.677392 279:0.762066 280:1.11135 281:1.35478 282:1.35478 283:1.66173 284:1.84166 285:2.34971 286:2.45555 287:2.63548 288:2.70957 289:2.85775 290:3.24938 291:3.42931 292:4.63593 293:5.45092 294:4.78411 295:4.03262 296:4.12788 297:3.71509 298:3.88444 299:3.01652 300:3.81035 301:4.39249 302:4.07495 303:3.90561 304:3.8421 305:3.43989 306:3.32347 307:3.42931 308:4.87937 
1 0.6678996091488519 0.7104923097790142 0 1 1:0 2:0 3:0 4:0 5:0 6:0 7:0 8:0 9:0 10:0 11:0.0111557 12:0 13:0.0111557 14:0 15:0.133869 16:0.479696 17:0.702811 18:1.05979 19:1.68451 20:2.47658 21:3.7595 22:7.29583 23:10.8211 24:11.0554 25:12.0818 26:13.1751 27:12.9519 28:11.457 29:7.49663 30:2.77778 31:0.390451 32:0.122713 33:0.0111557 34:0.0223115 35:0.0223115 36:0.0111557 37:0 38:0 39:0 40:0 41:0 42:0 43:0 44:0 45:0 46:0.0334672 47:0.0892459 48:0.15618 49:0.580098 50:1.37215 51:1.58411 52:2.1419 53:2.64391 54:2.55467 55:2.5212 56:2.94512 57:2.84472 58:2.87819 59:2.63276 60:3.72603 61:3.21286 62:3.24633 63:3.07899 64:3.29095 65:3.68141 66:3.7595 67:3.80412 68:3.60332 69:3.40251 70:3.61447 71:3.3802 72:2.84472 73:2.56582 74:2.78894 75:2.55467 76:2.43195 77:2.84472 78:2.4208 79:2.2423 80:2.38733 81:2.20884 82:1.82954 83:1.72914 84:1.78492 85:1.10442 86:0.725122 87:0.580098 88:0.145025 89:0.0446229 90:0 91:3.29095 92:3.53638 93:3.20171 94:3.17939 95:3.06784 96:3.44713 97:3.81528 98:3.82643 99:4.89738 100:4.08302 101:6.65996 102:8.34447 103:6.03525 104:4.88622 105:3.40251 106:5.65596 107:4.66311 108:1.59527 109:1.2606 110:0.99286 111:0.535475 112:0.278893 113:0.0446229 114:0.0780901 115:0.278893 116:0.323516 117:0.211959 118:0.267738 119:0.446229 120:0.446229 121:0.847835 122:0.970548 123:0.858991 124:0.83668 125:1.39447 126:1.97456 127:1.51718 128:0.83668 129:0.892458 130:0.870147 131:1.17135 132:0.981704 133:1.07095 134:1.11557 135:1.91878 136:0 137:0 138:0 139:0 140:0 141:0 142:0.178492 143:1.62874 144:2.15306 145:1.75145 146:2.58813 147:4.48462 148:6.96116 149:5.56671 150:6.63765 151:6.40338 152:6.5484 153:6.83845 154:6.42569 155:5.80098 156:5.0424 157:3.73719 158:2.98975 159:2.82241 160:2.54351 161:2.57698 162:2.30924 163:1.98572 164:1.33869 165:1.33869 166:0.858991 167:0.736278 168:0.691655 169:0.680499 170:0.680499 171:0.591254 172:0.602409 173:0.624721 174:1.07095 175:0.959393 176:0.580098 177:0.680499 178:0.301205 179:0.223115 180:0.0780901 181:0 182:0 183:0 184:0 185:0 186:0 187:0 188:0 189:0 190:0 191:0 192:0 193:0 194:0 195:0 196:0 197:0 198:0 199:0 200:0 201:0 202:0 203:0 204:0 205:0 206:0 207:0 208:0 209:0 210:0 211:0 212:0 213:0 214:0 215:0 216:0 217:0 218:0 219:0 220:0 221:0 222:0 223:0 224:0 225:0 226:0 227:0 228:0 229:0 230:0 231:0 232:0 233:0 234:0 235:0 236:0 237:0 238:0 239:0 240:0.0111545 241:0 242:0.0111545 243:0.0111545 244:0 245:0 246:0 247:0.0111545 248:0 249:0 250:0 251:0.0111545 252:0 253:0.0111545 254:0 255:0.022309 256:0.0111545 257:0 258:0.044618 259:0 260:0.022309 261:0.044618 262:0.0334635 263:0.0557724 264:0.0334635 265:0.0669269 266:0.022309 267:0.0557724 268:0.122699 269:0.10039 270:0.0780814 271:0.145008 272:0.200781 273:0.278862 274:0.368098 275:0.356944 276:0.457334 277:0.725042 278:1.02621 279:1.02621 280:1.27161 281:1.42778 282:1.56163 283:1.91858 284:1.99666 285:2.07474 286:2.18628 287:2.37591 288:2.50976 289:2.79977 290:2.85555 291:3.43558 292:3.77021 293:4.99722 294:4.116 295:4.20524 296:4.20524 297:4.16062 298:3.95983 299:3.5025 300:3.91522 301:4.52872 302:4.39486 303:3.9933 304:4.41717 305:3.48019 306:3.65866 307:2.76631 308:4.14946 
1 1 1 0.6112403666177014 1 1:0 2:0 3:0 4:0 5:0 6:0 7:0 8:0.0142207 9:0 10:0 11:0 12:0 13:0.0142207 14:0 15:0.0853242 16:0.113766 17:0.227531 18:0.654153 19:1.05233 20:1.76337 21:3.66894 22:6.08647 23:12.4572 24:13.0402 25:12.3434 26:13.154 27:12.6563 28:11.348 29:8.1769 30:2.67349 31:0.39818 32:0.0853242 33:0 34:0 35:0 36:0 37:0 38:0 39:0 40:0 41:0 42:0 43:0 44:0 45:0 46:0.0284414 47:0.170648 48:0.341297 49:1.13766 50:2.57395 51:3.17122 52:2.82992 53:2.97213 54:2.94369 55:2.68771 56:2.58817 57:3.34187 58:2.7446 59:2.92947 60:2.4744 61:2.30376 62:2.23265 63:2.48862 64:2.4033 65:2.31798 66:1.86291 67:1.63538 68:1.87713 69:1.94824 70:2.09044 71:2.57395 72:3.05745 73:2.61661 74:2.53129 75:2.8868 76:2.78726 77:2.64505 78:2.27531 79:3.28498 80:2.84414 81:2.63083 82:2.92947 83:3.28498 84:3.05745 85:3.01479 86:1.9909 87:0.952788 88:0.39818 89:0.142207 90:0.0142207 91:2.23265 92:1.49317 93:1.69226 94:1.36519 95:1.46473 96:2.00512 97:2.51707 98:2.77304 99:3.42719 100:4.15245 101:4.45108 102:6.21445 103:8.43287 104:7.57964 105:7.35211 106:7.30945 107:5.9727 108:4.55063 109:3.51252 110:1.66382 111:1.12344 112:0.383959 113:0.0995449 114:0.213311 115:0.383959 116:0.81058 117:0.910125 118:1.03811 119:1.70649 120:1.67804 121:1.35097 122:1.19454 123:1.05233 124:0.81058 125:0.739477 126:0.853243 127:0.682594 128:0.625711 129:0.639932 130:0.483504 131:0.483504 132:0.59727 133:0.426621 134:0.682594 135:0.881684 136:0 137:0 138:5.57452 139:10.1677 140:10.381 141:11.7604 142:12.8269 143:14.1067 144:13.8223 145:11.8031 146:5.4892 147:3.27076 148:0.455063 149:0 150:0 151:0 152:0 153:0 154:0 155:0 156:0 157:0 158:0 159:0 160:0 161:0 162:0 163:0 164:0 165:0 166:0 167:0 168:0 169:0 170:0 171:0 172:0 173:0 174:0 175:0 176:0 177:0 178:0 179:0.0284414 180:0.327076 181:0 182:0 183:0 184:0 185:0 186:0 187:0 188:0 189:0 190:0 191:0 192:0 193:0 194:0 195:0 196:0 197:0 198:0 199:0 200:0 201:0 202:0 203:0 204:0 205:0 206:0 207:0 208:0 209:0 210:0 211:0 212:0 213:0 214:0 215:0 216:0 217:0 218:0 219:0 220:0 221:0 222:0 223:0 224:0 225:0 226:0 227:0 228:0 229:0 230:0 231:0 232:0 233:0 234:0 235:0 236:0 237:0 238:0 239:0 240:0 241:0 242:0 243:0 244:0 245:0 246:0 247:0 248:0.0142187 249:0 250:0 251:0 252:0 253:0 254:0 255:0 256:0 257:0 258:0 259:0 260:0 261:0.0142187 262:0 263:0.0284374 264:0.0853121 265:0.0568747 266:0.0568747 267:0.0710934 268:0.0853121 269:0.184843 270:0.312811 271:0.440779 272:0.426561 273:0.611404 274:1.30812 275:1.42187 276:1.53562 277:1.84843 278:2.81529 279:2.5878 280:2.27499 281:2.04749 282:1.62093 283:2.53092 284:2.31764 285:2.94326 286:2.65889 287:3.75372 288:4.43622 289:4.67794 290:4.25137 291:4.72059 292:3.69684 293:3.85325 294:2.92904 295:3.38404 296:3.28451 297:2.78686 298:2.71576 299:2.77264 300:3.00013 301:2.81529 302:2.67311 303:2.65889 304:3.62575 305:3.93856 306:1.40765 307:1.08062 308:1.23703 
0 0.3170754968989272 0 0 0 1:0 2:0 3:0 4:0 5:0 6:0 7:0 8:0 9:0 10:0 11:0 12:0 13:0 14:0 15:0.0138831 16:0.0832986 17:0.305428 18:0.485909 19:0.763571 20:1.63821 21:3.66514 22:6.62224 23:14.5909 24:13.5914 25:12.9805 26:13.2304 27:11.7866 28:11.0786 29:6.60836 30:2.27683 31:0.22213 32:0.0138831 33:0.0555324 34:0 35:0 36:0 37:0 38:0 39:0 40:0 41:0 42:0 43:0 44:0 45:0 46:0 47:0 48:0.0832986 49:0.999584 50:2.91545 51:3.35971 52:2.99875 53:3.47078 54:3.06817 55:2.45731 56:2.37401 57:3.22088 58:2.9571 59:2.56838 60:2.41566 61:2.66556 62:2.20741 63:2.31848 64:2.29071 65:2.92934 66:2.09635 67:1.90199 68:2.08247 69:1.77704 70:1.87422 71:2.04082 72:2.47119 73:2.16577 74:2.17965 75:2.74886 76:2.44343 77:2.31848 78:2.48508 79:3.26253 80:3.08205 81:2.62391 82:3.58184 83:3.42913 84:3.54019 85:3.22088 86:2.40178 87:0.62474 88:0.291545 89:0.0694155 90:0 91:1.70762 92:1.13842 93:1.16618 94:1.51326 95:1.90199 96:1.77704 97:2.06858 98:2.29071 99:2.66556 100:3.99834 101:5.85867 102:6.96932 103:7.74678 104:7.67736 105:8.71857 106:7.33028 107:5.98362 108:4.99792 109:3.62349 110:1.81869 111:1.11065 112:0.416493 113:0.0832986 114:0.208247 115:0.596974 116:1.08288 117:0.944052 118:1.40219 119:1.40219 120:1.41608 121:1.2356 122:1.30501 123:1.24948 124:0.916285 125:0.541441 126:0.638623 127:0.708039 128:0.555324 129:0.319311 130:0.333195 131:0.40261 132:0.472026 133:0.458143 134:0.513675 135:0.749688 136:0 137:0 138:0 139:0 140:0 141:0 142:0 143:0 144:0.249896 145:2.0547 146:2.85992 147:2.94322 148:3.01264 149:2.8738 150:2.67944 151:2.80439 152:2.59614 153:2.79051 154:2.90157 155:3.13758 156:3.30418 157:3.34583 158:3.40136 159:3.4569 160:3.51243 161:3.69291 162:3.90115 163:3.97057 164:3.76232 165:3.67902 166:3.65126 167:3.74844 168:3.83174 169:3.90115 170:3.76232 171:3.58184 172:2.88769 173:2.36013 174:1.72151 175:1.18006 176:0.860753 177:0.610857 178:0.499792 179:0.360961 180:0.124948 181:0 182:0 183:0 184:0 185:0 186:0 187:0 188:0 189:0 190:0 191:0 192:0 193:0 194:0 195:0 196:0 197:0 198:0 199:0 200:0 201:0 202:0 203:0 204:0 205:0 206:0 207:0 208:0 209:0 210:0 211:0 212:0 213:0 214:0 215:0 216:0 217:0 218:0 219:0 220:0 221:0 222:0 223:0 224:0 225:0 226:0 227:0 228:0 229:0 230:0 231:0 232:0 233:0 234:0 235:0 236:0 237:0 238:0 239:0 240:0 241:0 242:0 243:0 244:0 245:0 246:0 247:0 248:0 249:0 250:0 251:0 252:0 253:0 254:0 255:0 256:0.0138812 257:0 258:0 259:0 260:0 261:0 262:0.0138812 263:0 264:0.0138812 265:0.0555247 266:0.0416435 267:0.124931 268:0.0277624 269:0.0971682 270:0.152693 271:0.194336 272:0.319267 273:0.569128 274:0.652416 275:1.15214 276:1.22155 277:1.59634 278:3.12327 279:3.10939 280:2.7346 281:2.52638 282:2.02665 283:1.72127 284:2.12382 285:2.27652 286:2.01277 287:2.76236 288:3.60911 289:4.10884 290:5.025 291:4.38646 292:2.9567 293:2.66519 294:2.84565 295:2.91505 296:2.83176 297:2.70683 298:2.62355 299:2.22099 300:2.30428 301:2.79012 302:4.09495 303:3.65076 304:2.79012 305:3.03998 306:7.23211 307:2.48473 308:2.05442 
0.6652085497211382 0 0 0 0 1:0 2:0 3:0 4:0 5:0 6:0 7:0 8:0 9:0 10:0 11:0 12:0 13:0 14:0.014039 15:0 16:0.182507 17:0.350976 18:0.687913 19:0.982733 20:1.57237 21:3.46764 22:7.77763 23:14.0952 24:13.0001 25:12.9019 26:12.5649 27:11.9472 28:10.7258 29:7.08971 30:2.42875 31:0.196546 32:0 33:0 34:0 35:0.014039 36:0.014039 37:0 38:0 39:0 40:0 41:0 42:0 43:0 44:0 45:0 46:0 47:0.126351 48:0.252702 49:0.715991 50:1.96547 51:2.89204 52:2.89204 53:3.42553 54:3.2009 55:2.82185 56:2.86396 57:2.84992 58:2.42875 59:2.42875 60:2.17605 61:2.66742 62:2.09182 63:2.68146 64:2.878 65:2.23221 66:2.23221 67:2.07778 68:1.99354 69:1.90931 70:2.10586 71:2.41471 72:2.58318 73:3.4536 74:2.27432 75:2.61126 76:2.6253 77:2.6955 78:2.77973 79:3.39745 80:2.70953 81:2.56914 82:2.97628 83:3.55188 84:2.75165 85:2.92012 86:2.66742 87:0.800225 88:0.210585 89:0.0982732 90:0.014039 91:0.912537 92:1.33371 93:1.29159 94:1.81104 95:1.71276 96:1.75488 97:2.0497 98:2.66742 99:3.70631 100:3.65015 101:4.0994 102:6.9774 103:8.00225 104:7.65128 105:7.24414 106:6.82297 107:6.52815 108:4.54865 109:2.73761 110:2.31644 111:1.7268 112:0.407132 113:0.182507 114:0.491366 115:0.659835 116:0.856381 117:1.31967 118:1.20736 119:1.44602 120:2.33048 121:1.4741 122:0.982733 123:0.800225 124:1.17928 125:0.954654 126:0.87042 127:0.645796 128:0.617718 129:0.491366 130:0.617718 131:0.491366 132:0.505405 133:0.449249 134:0.561561 135:0.926576 136:0 137:0 138:0 139:0 140:0 141:0 142:0 143:0.168468 144:1.01081 145:1.9795 146:2.68146 147:3.50976 148:2.96224 149:2.76569 150:2.66742 151:2.878 152:2.99032 153:3.04647 154:3.14474 155:3.29917 156:3.39745 157:3.43956 158:3.53784 159:3.7765 160:3.91689 161:3.94497 162:3.90285 163:3.98709 164:3.7765 165:3.90285 166:4.11344 167:3.65015 168:3.59399 169:3.5238 170:3.34129 171:2.82185 172:2.10586 173:1.797 174:1.41794 175:1.02485 176:0.617718 177:0.477327 178:0.393093 179:0.29482 180:0.154429 181:0 182:0 183:0 184:0 185:0 186:0 187:0 188:0 189:0 190:0 191:0 192:0 193:0 194:0 195:0 196:0 197:0 198:0 199:0 200:0 201:0 202:0 203:0 204:0 205:0 206:0 207:0 208:0 209:0 210:0 211:0 212:0 213:0 214:0 215:0 216:0 217:0 218:0 219:0 220:0 221:0 222:0 223:0 224:0 225:0 226:0 227:0 228:0 229:0 230:0 231:0 232:0 233:0 234:0 235:0 236:0 237:0 238:0 239:0 240:0.0140371 241:0 242:0 243:0 244:0 245:0 246:0 247:0.0140371 248:0 249:0 250:0 251:0 252:0 253:0 254:0 255:0 256:0 257:0.0140371 258:0 259:0 260:0 261:0 262:0 263:0.0421112 264:0.0280741 265:0.0421112 266:0.0561482 267:0.0701853 268:0.0842223 269:0.0842223 270:0.168445 271:0.364964 272:0.435149 273:0.57552 274:0.617631 275:0.884335 276:1.12296 277:1.57215 278:3.55138 279:2.93375 280:2.20382 281:2.37226 282:2.03537 283:2.20382 284:1.7827 285:1.85289 286:2.34419 287:2.37226 288:3.59349 289:4.53398 290:3.83212 291:3.70579 292:3.43908 293:3.10219 294:3.11623 295:2.63897 296:2.68108 297:2.4986 298:2.47052 299:2.31611 300:2.51263 301:2.63897 302:3.87424 303:3.66368 304:3.31275 305:3.31275 306:7.27122 307:3.27064 308:2.37226 
0 0 1 0 0 1:0 2:0 3:0 4:0 5:0 6:0 7:0 8:0 9:0 10:0 11:0 12:0 13:0 14:0 15:0 16:0.136705 17:0.232399 18:0.560492 19:1.02529 20:1.50376 21:2.98017 22:6.82157 23:13.8621 24:13.7253 25:13.1512 26:13.1922 27:12.8094 28:10.8408 29:6.64385 30:2.17362 31:0.287081 32:0.0410116 33:0 34:0.0273411 35:0 36:0 37:0 38:0 39:0 40:0 41:0 42:0 43:0 44:0 45:0 46:0.0273411 47:0.0410116 48:0.218729 49:0.601504 50:1.77717 51:2.92549 52:3.0622 53:3.36295 54:3.13055 55:2.72043 56:3.03486 57:3.15789 58:2.73411 59:2.58373 60:2.35133 61:2.48804 62:2.47437 63:2.91182 64:2.55639 65:2.57006 66:2.26931 67:2.66575 68:1.91388 69:2.51538 70:2.24197 71:1.95489 72:2.24197 73:2.98017 74:1.98223 75:2.33766 76:2.57006 77:2.61107 78:3.10321 79:2.9665 80:3.04853 81:2.4607 82:2.92549 83:3.22624 84:2.72043 85:2.9665 86:2.31032 87:1.01162 88:0.24607 89:0.0136705 90:0 91:1.59945 92:1.36706 93:1.25769 94:1.54477 95:2.06425 96:2.32399 97:2.74778 98:2.92549 99:3.40396 100:4.19684 101:5.49554 102:7.01295 103:7.86052 104:7.83318 105:7.65547 106:7.09498 107:5.80996 108:4.4019 109:2.93916 110:2.43336 111:1.18934 112:0.382775 113:0.109364 114:0.205058 115:0.792892 116:0.683527 117:0.861244 118:0.915927 119:1.12099 120:2.13261 121:1.49009 122:0.98428 123:1.17567 124:0.874915 125:0.533151 126:0.464798 127:0.546822 128:0.382775 129:0.451128 130:0.423787 131:0.396446 132:0.464798 133:0.50581 134:0.396446 135:0.560492 136:0 137:0 138:0 139:0 140:0 141:0 142:0 143:0.0546822 144:0.847574 145:2.26931 146:3.0622 147:3.02118 148:2.92549 149:2.98017 150:3.0622 151:2.9665 152:2.93916 153:3.26725 154:3.39029 155:3.40396 156:3.44497 157:3.51332 158:3.39029 159:3.77306 160:3.89609 161:3.92343 162:4.14216 163:4.22418 164:3.70471 165:3.88242 166:4.0328 167:3.99179 168:3.78673 169:3.71838 170:3.32193 171:2.48804 172:1.61313 173:1.2987 174:1.14833 175:0.902256 176:0.669857 177:0.51948 178:0.273411 179:0.0956938 180:0.0683527 181:0 182:0 183:0 184:0 185:0 186:0 187:0 188:0 189:0 190:0 191:0 192:0 193:0 194:0 195:0 196:0 197:0 198:0 199:0 200:0 201:0 202:0 203:0 204:0 205:0 206:0 207:0 208:0 209:0 210:0 211:0 212:0 213:0 214:0 215:0 216:0 217:0 218:0 219:0 220:0 221:0 222:0 223:0 224:0 225:0 226:0 227:0 228:0 229:0 230:0 231:0 232:0 233:0 234:0 235:0 236:0 237:0 238:0 239:0 240:0 241:0 242:0 243:0 244:0 245:0 246:0 247:0 248:0 249:0 250:0.0273373 251:0 252:0 253:0 254:0 255:0 256:0 257:0 258:0 259:0 260:0 261:0 262:0 263:0 264:0.041006 265:0.0273373 266:0.0136687 267:0.041006 268:0.109349 269:0.0956807 270:0.123018 271:0.136687 272:0.177693 273:0.341717 274:0.61509 275:0.888463 276:1.09349 277:1.3942 278:2.28267 279:3.04812 280:3.17114 281:2.25533 282:1.58556 283:2.07764 284:2.11864 285:1.80426 286:2.06397 287:2.32367 288:3.59487 289:3.85458 290:3.70422 291:4.78404 292:3.21215 293:2.81575 294:3.00711 295:3.00711 296:3.06179 297:2.65173 298:3.02078 299:2.43302 300:3.06179 301:3.04812 302:3.23948 303:3.64955 304:3.51286 305:2.84309 306:7.42207 307:3.33516 308:2.88409 
0 0 1 0 0 1:0 2:0 3:0 4:0 5:0 6:0.0136743 7:0 8:0 9:0 10:0 11:0 12:0.0136743 13:0.0136743 14:0 15:0.0410228 16:0.177766 17:0.341857 18:0.806782 19:1.16231 20:2.02379 21:3.36387 22:6.98755 23:13.5377 24:12.1429 25:11.6506 26:12.4164 27:13.5377 28:11.3498 29:7.73963 30:2.2836 31:0.328183 32:0.0410228 33:0.0136743 34:0.0136743 35:0.0136743 36:0 37:0 38:0 39:0 40:0 41:0 42:0 43:0 44:0 45:0 46:0.0136743 47:0.136743 48:0.150417 49:0.615343 50:1.65459 51:2.3383 52:2.78955 53:3.37754 54:3.06304 55:3.14508 56:2.73485 57:3.07671 58:3.00834 59:2.40667 60:2.62546 61:2.65281 62:2.36565 63:2.47504 64:2.61178 65:2.55709 66:1.94175 67:1.94175 68:2.52974 69:2.393 70:2.25625 71:2.46137 72:2.89894 73:2.55709 74:2.42034 75:2.35197 76:2.54341 77:2.62546 78:3.15875 79:3.03569 80:2.72118 81:2.55709 82:2.92629 83:3.63735 84:3.44591 85:2.72118 86:2.35197 87:0.533297 88:0.136743 89:0.0546971 90:0.0136743 91:1.42212 92:1.17599 93:1.10762 94:1.77765 95:2.06481 96:2.35197 97:2.74853 98:3.06304 99:4.02023 100:4.00656 101:4.99111 102:7.95842 103:7.47982 104:7.13796 105:7.53452 106:6.63202 107:6.0577 108:5.05948 109:2.99466 110:1.4905 111:1.20334 112:0.328183 113:0.0410228 114:0.205114 115:0.410228 116:0.560646 117:1.59989 118:1.3811 119:1.65459 120:1.3264 121:1.24436 122:1.42212 123:1.06659 124:1.09394 125:0.724737 126:0.601668 127:0.28716 128:0.396554 129:0.314508 130:0.355531 131:0.492274 132:0.4786 133:0.341857 134:0.505948 135:0.902502 136:0 137:0 138:0 139:0 140:0 141:0 142:0 143:0.341857 144:0.834131 145:2.05114 146:3.35019 147:3.15875 148:2.8169 149:3.26815 150:2.84425 151:2.84425 152:3.03569 153:2.99466 154:3.26815 155:3.35019 156:3.35019 157:3.51429 158:3.37754 159:3.89716 160:3.73307 161:3.93819 162:4.03391 163:4.06126 164:3.76042 165:4.0886 166:4.23902 167:4.04758 168:3.74675 169:3.63735 170:3.48694 171:2.58444 172:1.75031 173:1.4358 174:1.0119 175:0.752085 176:0.656365 177:0.464926 178:0.177766 179:0.0546971 180:0.0546971 181:0 182:0 183:0 184:0 185:0 186:0 187:0 188:0 189:0 190:0 191:0 192:0 193:0 194:0 195:0 196:0 197:0 198:0 199:0 200:0 201:0 202:0 203:0 204:0 205:0 206:0 207:0 208:0 209:0 210:0 211:0 212:0 213:0 214:0 215:0 216:0 217:0 218:0 219:0 220:0 221:0 222:0 223:0 224:0 225:0 226:0 227:0 228:0 229:0 230:0 231:0 232:0 233:0 234:0 235:0 236:0 237:0 238:0 239:0.0136724 240:0 241:0 242:0 243:0.0273448 244:0 245:0 246:0 247:0.0136724 248:0 249:0 250:0 251:0 252:0 253:0.0136724 254:0 255:0 256:0 257:0 258:0 259:0 260:0 261:0 262:0 263:0.0410172 264:0.0410172 265:0.0136724 266:0.0820345 267:0.0957069 268:0.0820345 269:0.109379 270:0.191414 271:0.136724 272:0.300793 273:0.382827 274:0.437517 275:0.710965 276:1.13481 277:1.42193 278:1.90046 279:3.13097 280:2.85753 281:2.06453 282:2.28329 283:1.8321 284:2.43368 285:2.26961 286:2.40634 287:2.7208 288:3.89662 289:3.34973 290:3.69154 291:4.07437 292:3.56849 293:3.32239 294:3.08996 295:3.24035 296:2.98058 297:3.00792 298:3.40442 299:2.57041 300:3.28137 301:2.74815 302:3.29504 303:3.5138 304:3.17199 305:2.63877 306:6.02951 307:3.44544 308:2.52939 
0.150857203941093 0 0.2545434611171295 0 0 1:0 2:0 3:0 4:0 5:0 6:0 7:0 8:0 9:0 10:0 11:0.0136203 12:0 13:0 14:0.0136203 15:0.0272405 16:0.0817216 17:0.408608 18:0.599292 19:1.17134 20:2.07028 21:3.6911 22:6.98724 23:13.6067 24:12.5443 25:11.8633 26:11.768 27:12.8985 28:11.2232 29:7.99514 30:2.50613 31:0.422228 32:0.0953419 33:0.0272405 34:0 35:0 36:0 37:0 38:0 39:0 40:0 41:0 42:0 43:0 44:0 45:0 46:0 47:0.0544811 48:0.204304 49:0.708254 50:1.77063 51:3.51404 52:3.74559 53:3.4187 54:2.79216 55:2.79216 56:3.20077 57:3.07819 58:3.03733 59:2.43803 60:2.79216 61:2.84664 62:2.38355 63:2.6151 64:2.23372 65:2.35631 66:2.12476 67:1.92046 68:1.85236 69:2.36993 70:2.46527 71:2.27459 72:2.12476 73:3.01009 74:1.90684 75:2.11114 76:2.31545 77:2.71044 78:2.94198 79:3.05095 80:2.58785 81:2.66958 82:3.13267 83:3.26887 84:2.62872 85:2.80578 86:2.51975 87:0.858076 88:0.299646 89:0.0681013 90:0.0136203 91:1.67529 92:1.78425 93:1.8796 94:1.75701 95:2.152 96:2.51975 97:2.57423 98:2.39717 99:3.32335 100:3.67748 101:4.39936 102:6.22449 103:8.18583 104:8.14497 105:7.00086 106:6.52414 107:6.45604 108:4.79436 109:3.40508 110:1.96132 111:0.939798 112:0.245165 113:0.0272405 114:0.381367 115:0.626532 116:0.844456 117:1.2122 118:1.49823 119:1.43013 120:1.36203 121:1.9477 122:1.33479 123:0.844456 124:0.871697 125:0.585671 126:0.612912 127:0.694633 128:0.476709 129:0.408608 130:0.435848 131:0.272405 132:0.449469 133:0.299646 134:0.626532 135:0.749114 136:0 137:0 138:0 139:0 140:0 141:0 142:0 143:0.0817216 144:1.11686 145:2.23372 146:3.56852 147:3.37784 148:3.33698 149:3.06457 150:3.09181 151:3.17353 152:3.21439 153:3.40508 154:3.45956 155:3.52766 156:3.45956 157:3.70473 158:3.93627 159:3.96351 160:4.1542 161:4.12696 162:4.31764 163:3.82731 164:4.04523 165:4.07248 166:3.82731 167:3.97713 168:3.59576 169:3.29611 170:2.50613 171:1.74339 172:1.2803 173:1.2122 174:0.844456 175:0.640152 176:0.340507 177:0.231545 178:0.108962 179:0.0817216 180:0.0681013 181:0 182:0 183:0 184:0 185:0 186:0 187:0 188:0 189:0 190:0 191:0 192:0 193:0 194:0 195:0 196:0 197:0 198:0 199:0 200:0 201:0 202:0 203:0 204:0 205:0 206:0 207:0 208:0 209:0 210:0 211:0 212:0 213:0 214:0 215:0 216:0 217:0 218:0 219:0 220:0 221:0 222:0 223:0 224:0 225:0 226:0 227:0 228:0 229:0 230:0 231:0 232:0 233:0 234:0 235:0 236:0 237:0 238:0 239:0 240:0 241:0 242:0 243:0 244:0 245:0.0136184 246:0 247:0 248:0 249:0 250:0.0136184 251:0 252:0 253:0.0272368 254:0 255:0.0272368 256:0 257:0 258:0.0136184 259:0 260:0.0272368 261:0.0136184 262:0 263:0 264:0.0408552 265:0.0680921 266:0.108947 267:0.163421 268:0.108947 269:0.163421 270:0.204276 271:0.245131 272:0.544736 273:0.653684 274:0.653684 275:1.04862 276:1.34822 277:1.7023 278:2.35599 279:2.8054 280:2.35599 281:2.5875 282:1.96106 283:2.04277 284:2.26066 285:2.17895 286:2.26066 287:2.39685 288:3.85402 289:3.86764 290:4.31705 291:3.78593 292:3.14586 293:3.21395 294:2.99606 295:3.22757 296:2.94159 297:2.87349 298:2.68283 299:2.62836 300:2.57389 301:2.57389 302:3.48632 303:3.47271 304:3.0233 305:3.81317 306:5.73337 307:2.9552 308:2.4377 
0 0 1 0 0 1:0 2:0 3:0 4:0 5:0 6:0 7:0 8:0 9:0 10:0 11:0 12:0 13:0.013587 14:0.0543478 15:0.0407609 16:0.122283 17:0.13587 18:0.475544 19:0.842391 20:1.88859 21:3.30164 22:7.33698 23:14.3615 24:12.6359 25:12.0653 26:12.3098 27:12.7718 28:10.9919 29:7.32339 30:2.70381 31:0.502718 32:0.0951087 33:0.013587 34:0.013587 35:0.013587 36:0 37:0 38:0 39:0 40:0 41:0 42:0 43:0 44:0 45:0 46:0 47:0.0815217 48:0.244565 49:0.584239 50:1.92935 51:3.8587 52:3.38316 53:3.36957 54:2.86685 55:2.98914 56:3.27446 57:3.32881 58:2.51359 59:2.9212 60:2.55435 61:2.70381 62:2.43207 63:2.48642 64:2.88044 65:2.11957 66:2.37772 67:2.05163 68:1.83424 69:2.10598 70:2.14674 71:1.60326 72:2.16033 73:2.86685 74:2.52718 75:2.33696 76:2.59511 77:2.59511 78:2.83968 79:2.73098 80:2.32337 81:2.62229 82:2.58153 83:2.7174 84:2.56794 85:3.26088 86:2.96196 87:1.07337 88:0.516304 89:0.0951087 90:0 91:1.91576 92:1.26359 93:1.10054 94:1.31794 95:1.53533 96:2.17392 97:2.81251 98:3.3424 99:3.39675 100:4.29349 101:5.16306 102:6.86143 103:8.53263 104:8.07067 105:7.50002 106:7.75817 107:5.55708 108:3.9674 109:2.85327 110:1.60326 111:0.855978 112:0.434783 113:0.0679348 114:0.244565 115:0.285326 116:1.26359 117:0.733696 118:0.80163 119:1.25 120:1.88859 121:1.83424 122:1.23641 123:1.10054 124:0.97826 125:0.910326 126:0.516304 127:0.380435 128:0.407609 129:0.421196 130:0.665761 131:0.570652 132:0.597826 133:0.366848 134:0.502718 135:0.679348 136:0 137:0 138:0 139:0 140:0 141:0 142:0 143:0.122283 144:1.08696 145:2.88044 146:3.24729 147:2.9212 148:2.66305 149:2.75816 150:3.28805 151:3.16577 152:3.19294 153:3.35598 154:3.46468 155:3.38316 156:3.84512 157:3.68207 158:3.89946 159:3.75001 160:4.25273 161:4.29349 162:4.10327 163:4.08968 164:3.84512 165:3.9674 166:4.21197 167:3.8587 168:3.73642 169:3.22011 170:2.30979 171:1.84783 172:1.71196 173:1.29076 174:0.788043 175:0.706522 176:0.394022 177:0.353261 178:0.217391 179:0.0679348 180:0.0407609 181:0 182:0 183:0 184:0 185:0 186:0 187:0 188:0 189:0 190:0 191:0 192:0 193:0 194:0 195:0 196:0 197:0 198:0 199:0 200:0 201:0 202:0 203:0 204:0 205:0 206:0 207:0 208:0 209:0 210:0 211:0 212:0 213:0 214:0 215:0 216:0 217:0 218:0 219:0 220:0 221:0 222:0 223:0 224:0 225:0 226:0 227:0 228:0 229:0 230:0 231:0 232:0 233:0 234:0 235:0 236:0 237:0 238:0 239:0 240:0 241:0 242:0.0135851 243:0 244:0 245:0.0135851 246:0.0135851 247:0 248:0 249:0 250:0 251:0 252:0 253:0 254:0 255:0.0135851 256:0.0271702 257:0 258:0 259:0.0271702 260:0 261:0.0407553 262:0.0135851 263:0.0679256 264:0.0407553 265:0.108681 266:0.122266 267:0.0815107 268:0.285287 269:0.298872 270:0.285287 271:0.461894 272:0.529819 273:0.624915 274:0.855862 275:1.29058 276:1.44002 277:2.03776 278:2.97514 279:2.66268 280:2.26871 281:1.69814 282:1.88833 283:2.01059 284:1.75248 285:2.26871 286:1.94267 287:3.13816 288:3.93968 289:4.63252 290:4.17062 291:3.1925 292:3.13816 293:3.02948 294:3.15174 295:2.554 296:2.64909 297:3.3691 298:2.60834 299:2.58117 300:2.58117 301:2.85287 302:3.39627 303:2.7306 304:2.67626 305:7.18651 306:3.54571 307:2.30947 308:2.40456 
1 0 0 0 0 1:0 2:0 3:0 4:0 5:0 6:0 7:0 8:0 9:0 10:0 11:0 12:0.0271076 13:0.0135538 14:0.0135538 15:0.067769 16:0.149092 17:0.365953 18:0.813228 19:1.59935 20:2.4668 21:3.7002 22:8.07802 23:12.7134 24:12.9709 25:12.0492 26:13.3368 27:11.2902 28:9.56892 29:7.04795 30:3.10383 31:0.56926 32:0.0406614 33:0 34:0.0135538 35:0.0135538 36:0 37:0 38:0 39:0 40:0 41:0 42:0 43:0 44:0 45:0 46:0.0813228 47:0.271076 48:0.352399 49:0.880997 50:2.27704 51:2.60234 52:3.06317 53:3.1716 54:3.09028 55:2.65655 56:2.71077 57:2.90052 58:2.53457 59:2.71077 60:2.88697 61:2.56167 62:2.45324 63:2.75143 64:2.39903 65:2.50746 66:1.80266 67:2.20927 68:2.43969 69:2.35837 70:1.99241 71:1.96531 72:2.85986 73:2.75143 74:2.35837 75:2.34481 76:2.61589 77:2.53457 78:2.30415 79:2.19572 80:2.07374 81:2.50746 82:3.02251 83:3.37491 84:3.30714 85:3.19871 86:3.15804 87:1.09786 88:0.542152 89:0.10843 90:0.0271076 91:1.89754 92:1.82977 93:1.2605 94:1.35538 95:1.69423 96:2.07374 97:2.33126 98:2.80564 99:3.06317 100:3.48334 101:5.38085 102:7.02084 103:7.57654 104:6.8853 105:6.84464 106:6.58713 107:5.82812 108:4.48631 109:3.10383 110:1.92464 111:0.921659 112:0.447276 113:0.0813228 114:0.271076 115:0.515045 116:0.772567 117:1.03009 118:1.4367 119:1.4367 120:1.85687 121:1.69423 122:1.762 123:1.78911 124:1.38249 125:1.09786 126:0.718352 127:0.718352 128:0.691244 129:0.515045 130:0.555706 131:0.39306 132:0.433722 133:0.582814 134:0.623475 135:0.85389 136:0 137:0 138:0 139:0 140:0 141:0 142:0 143:0.216861 144:1.92464 145:2.68366 146:3.30714 147:2.8192 148:3.06317 149:3.25292 150:3.21226 151:3.15804 152:3.18515 153:3.32069 154:3.40201 155:3.49689 156:3.79508 157:4.01194 158:3.83574 159:4.24235 160:4.06615 161:4.20169 162:3.95772 163:4.01194 164:4.0526 165:4.07971 166:4.2559 167:4.17458 168:4.03904 169:2.98184 170:2.19572 171:1.55869 172:1.19274 173:0.908105 174:0.56926 175:0.39306 176:0.203307 177:0.135538 178:0.0948767 179:0 180:0.0135538 181:0 182:0 183:0 184:0 185:0 186:0 187:0 188:0 189:0 190:0 191:0 192:0 193:0 194:0 195:0 196:0 197:0 198:0 199:0 200:0 201:0 202:0 203:0 204:0 205:0 206:0 207:0 208:0 209:0 210:0 211:0 212:0 213:0 214:0 215:0 216:0 217:0 218:0 219:0 220:0 221:0 222:0 223:0 224:0 225:0 226:0 227:0 228:0 229:0 230:0 231:0 232:0 233:0 234:0 235:0 236:0 237:0 238:0 239:0 240:0 241:0 242:0 243:0 244:0 245:0 246:0 247:0.0271039 248:0 249:0 250:0 251:0 252:0.013552 253:0 254:0 255:0 256:0 257:0.0406559 258:0.013552 259:0.013552 260:0.013552 261:0.013552 262:0.0271039 263:0.0271039 264:0.0677599 265:0.0677599 266:0.0677599 267:0.189728 268:0.176176 269:0.284591 270:0.487871 271:0.460767 272:0.664046 273:0.718254 274:0.962189 275:1.62624 276:1.47716 277:1.97859 278:2.62908 279:2.65618 280:2.71039 281:1.97859 282:1.92438 283:1.88372 284:2.54777 285:2.38514 286:2.27673 287:3.4693 288:3.15761 289:4.09269 290:3.72679 291:2.91367 292:3.07629 293:3.04919 294:3.00853 295:2.58842 296:2.90012 297:2.80525 298:2.60198 299:2.62908 300:3.1305 301:2.68329 302:2.73749 303:2.48001 304:4.47215 305:6.09842 306:2.72394 307:2.23607 308:3.00853 
